digraph Tree {
node [shape=box, style="filled, rounded", color="black", fontname="helvetica"] ;
edge [fontname="helvetica"] ;
0 [label=<nr.employed &le; 5087.65<br/>gini = 0.2<br/>samples = 28831<br/>value = [25580, 3251]<br/>class = No>, fillcolor="#e89152"] ;
1 [label=<duration &le; 165.5<br/>gini = 0.494<br/>samples = 3493<br/>value = [1938.0, 1555.0]<br/>class = No>, fillcolor="#fae6d8"] ;
0 -> 1 [labeldistance=2.5, labelangle=45, headlabel="True"] ;
2 [label=<duration &le; 124.5<br/>gini = 0.27<br/>samples = 1259<br/>value = [1056, 203]<br/>class = No>, fillcolor="#ea995f"] ;
1 -> 2 ;
3 [label=<pdays &le; 3.5<br/>gini = 0.179<br/>samples = 816<br/>value = [735, 81]<br/>class = No>, fillcolor="#e88f4f"] ;
2 -> 3 ;
4 [label=<age &le; 31.5<br/>gini = 0.485<br/>samples = 41<br/>value = [24, 17]<br/>class = No>, fillcolor="#f7dac5"] ;
3 -> 4 ;
5 [label=<age &le; 21.5<br/>gini = 0.198<br/>samples = 9<br/>value = [1, 8]<br/>class = Yes>, fillcolor="#52a9e8"] ;
4 -> 5 ;
6 [label=<gini = 0.0<br/>samples = 1<br/>value = [1, 0]<br/>class = No>, fillcolor="#e58139"] ;
5 -> 6 ;
7 [label=<gini = 0.0<br/>samples = 8<br/>value = [0, 8]<br/>class = Yes>, fillcolor="#399de5"] ;
5 -> 7 ;
8 [label=<euribor3m &le; 0.715<br/>gini = 0.404<br/>samples = 32<br/>value = [23, 9]<br/>class = No>, fillcolor="#efb286"] ;
4 -> 8 ;
9 [label=<campaign &le; 3.5<br/>gini = 0.408<br/>samples = 7<br/>value = [2, 5]<br/>class = Yes>, fillcolor="#88c4ef"] ;
8 -> 9 ;
10 [label=<duration &le; 110.5<br/>gini = 0.278<br/>samples = 6<br/>value = [1, 5]<br/>class = Yes>, fillcolor="#61b1ea"] ;
9 -> 10 ;
11 [label=<gini = 0.0<br/>samples = 5<br/>value = [0, 5]<br/>class = Yes>, fillcolor="#399de5"] ;
10 -> 11 ;
12 [label=<gini = 0.0<br/>samples = 1<br/>value = [1, 0]<br/>class = No>, fillcolor="#e58139"] ;
10 -> 12 ;
13 [label=<gini = 0.0<br/>samples = 1<br/>value = [1, 0]<br/>class = No>, fillcolor="#e58139"] ;
9 -> 13 ;
14 [label=<job_blue-collar &le; 0.5<br/>gini = 0.269<br/>samples = 25<br/>value = [21, 4]<br/>class = No>, fillcolor="#ea995f"] ;
8 -> 14 ;
15 [label=<month_sep &le; 0.5<br/>gini = 0.219<br/>samples = 24<br/>value = [21, 3]<br/>class = No>, fillcolor="#e99355"] ;
14 -> 15 ;
16 [label=<cons.price.idx &le; 92.316<br/>gini = 0.095<br/>samples = 20<br/>value = [19, 1]<br/>class = No>, fillcolor="#e68843"] ;
15 -> 16 ;
17 [label=<education_university.degree &le; 0.5<br/>gini = 0.245<br/>samples = 7<br/>value = [6, 1]<br/>class = No>, fillcolor="#e9965a"] ;
16 -> 17 ;
18 [label=<gini = 0.0<br/>samples = 5<br/>value = [5, 0]<br/>class = No>, fillcolor="#e58139"] ;
17 -> 18 ;
19 [label=<euribor3m &le; 0.851<br/>gini = 0.5<br/>samples = 2<br/>value = [1, 1]<br/>class = No>, fillcolor="#ffffff"] ;
17 -> 19 ;
20 [label=<gini = 0.0<br/>samples = 1<br/>value = [0, 1]<br/>class = Yes>, fillcolor="#399de5"] ;
19 -> 20 ;
21 [label=<gini = 0.0<br/>samples = 1<br/>value = [1, 0]<br/>class = No>, fillcolor="#e58139"] ;
19 -> 21 ;
22 [label=<gini = 0.0<br/>samples = 13<br/>value = [13, 0]<br/>class = No>, fillcolor="#e58139"] ;
16 -> 22 ;
23 [label=<duration &le; 100.0<br/>gini = 0.5<br/>samples = 4<br/>value = [2, 2]<br/>class = No>, fillcolor="#ffffff"] ;
15 -> 23 ;
24 [label=<gini = 0.0<br/>samples = 1<br/>value = [0, 1]<br/>class = Yes>, fillcolor="#399de5"] ;
23 -> 24 ;
25 [label=<duration &le; 114.0<br/>gini = 0.444<br/>samples = 3<br/>value = [2, 1]<br/>class = No>, fillcolor="#f2c09c"] ;
23 -> 25 ;
26 [label=<gini = 0.0<br/>samples = 2<br/>value = [2, 0]<br/>class = No>, fillcolor="#e58139"] ;
25 -> 26 ;
27 [label=<gini = 0.0<br/>samples = 1<br/>value = [0, 1]<br/>class = Yes>, fillcolor="#399de5"] ;
25 -> 27 ;
28 [label=<gini = 0.0<br/>samples = 1<br/>value = [0, 1]<br/>class = Yes>, fillcolor="#399de5"] ;
14 -> 28 ;
29 [label=<duration &le; 77.5<br/>gini = 0.152<br/>samples = 775<br/>value = [711, 64]<br/>class = No>, fillcolor="#e78c4b"] ;
3 -> 29 ;
30 [label=<pdays &le; 13.5<br/>gini = 0.042<br/>samples = 280<br/>value = [274, 6]<br/>class = No>, fillcolor="#e6843d"] ;
29 -> 30 ;
31 [label=<housing_yes &le; 0.5<br/>gini = 0.469<br/>samples = 8<br/>value = [5, 3]<br/>class = No>, fillcolor="#f5cdb0"] ;
30 -> 31 ;
32 [label=<job_services &le; 0.5<br/>gini = 0.375<br/>samples = 4<br/>value = [1, 3]<br/>class = Yes>, fillcolor="#7bbeee"] ;
31 -> 32 ;
33 [label=<gini = 0.0<br/>samples = 3<br/>value = [0, 3]<br/>class = Yes>, fillcolor="#399de5"] ;
32 -> 33 ;
34 [label=<gini = 0.0<br/>samples = 1<br/>value = [1, 0]<br/>class = No>, fillcolor="#e58139"] ;
32 -> 34 ;
35 [label=<gini = 0.0<br/>samples = 4<br/>value = [4, 0]<br/>class = No>, fillcolor="#e58139"] ;
31 -> 35 ;
36 [label=<euribor3m &le; 1.264<br/>gini = 0.022<br/>samples = 272<br/>value = [269, 3]<br/>class = No>, fillcolor="#e5823b"] ;
30 -> 36 ;
37 [label=<emp.var.rate &le; -3.2<br/>gini = 0.015<br/>samples = 261<br/>value = [259, 2]<br/>class = No>, fillcolor="#e5823b"] ;
36 -> 37 ;
38 [label=<job_services &le; 0.5<br/>gini = 0.08<br/>samples = 48<br/>value = [46, 2]<br/>class = No>, fillcolor="#e68642"] ;
37 -> 38 ;
39 [label=<job_management &le; 0.5<br/>gini = 0.042<br/>samples = 47<br/>value = [46, 1]<br/>class = No>, fillcolor="#e6843d"] ;
38 -> 39 ;
40 [label=<gini = 0.0<br/>samples = 42<br/>value = [42, 0]<br/>class = No>, fillcolor="#e58139"] ;
39 -> 40 ;
41 [label=<day_of_week_wed &le; 0.5<br/>gini = 0.32<br/>samples = 5<br/>value = [4, 1]<br/>class = No>, fillcolor="#eca06a"] ;
39 -> 41 ;
42 [label=<gini = 0.0<br/>samples = 4<br/>value = [4, 0]<br/>class = No>, fillcolor="#e58139"] ;
41 -> 42 ;
43 [label=<gini = 0.0<br/>samples = 1<br/>value = [0, 1]<br/>class = Yes>, fillcolor="#399de5"] ;
41 -> 43 ;
44 [label=<gini = 0.0<br/>samples = 1<br/>value = [0, 1]<br/>class = Yes>, fillcolor="#399de5"] ;
38 -> 44 ;
45 [label=<gini = 0.0<br/>samples = 213<br/>value = [213, 0]<br/>class = No>, fillcolor="#e58139"] ;
37 -> 45 ;
46 [label=<duration &le; 68.0<br/>gini = 0.165<br/>samples = 11<br/>value = [10, 1]<br/>class = No>, fillcolor="#e88e4d"] ;
36 -> 46 ;
47 [label=<gini = 0.0<br/>samples = 7<br/>value = [7, 0]<br/>class = No>, fillcolor="#e58139"] ;
46 -> 47 ;
48 [label=<duration &le; 70.0<br/>gini = 0.375<br/>samples = 4<br/>value = [3, 1]<br/>class = No>, fillcolor="#eeab7b"] ;
46 -> 48 ;
49 [label=<gini = 0.0<br/>samples = 1<br/>value = [0, 1]<br/>class = Yes>, fillcolor="#399de5"] ;
48 -> 49 ;
50 [label=<gini = 0.0<br/>samples = 3<br/>value = [3, 0]<br/>class = No>, fillcolor="#e58139"] ;
48 -> 50 ;
51 [label=<euribor3m &le; 0.635<br/>gini = 0.207<br/>samples = 495<br/>value = [437, 58]<br/>class = No>, fillcolor="#e89253"] ;
29 -> 51 ;
52 [label=<job_services &le; 0.5<br/>gini = 0.375<br/>samples = 4<br/>value = [1, 3]<br/>class = Yes>, fillcolor="#7bbeee"] ;
51 -> 52 ;
53 [label=<gini = 0.0<br/>samples = 3<br/>value = [0, 3]<br/>class = Yes>, fillcolor="#399de5"] ;
52 -> 53 ;
54 [label=<gini = 0.0<br/>samples = 1<br/>value = [1, 0]<br/>class = No>, fillcolor="#e58139"] ;
52 -> 54 ;
55 [label=<euribor3m &le; 1.248<br/>gini = 0.199<br/>samples = 491<br/>value = [436, 55]<br/>class = No>, fillcolor="#e89152"] ;
51 -> 55 ;
56 [label=<education_professional.course &le; 0.5<br/>gini = 0.169<br/>samples = 407<br/>value = [369, 38]<br/>class = No>, fillcolor="#e88e4d"] ;
55 -> 56 ;
57 [label=<month_mar &le; 0.5<br/>gini = 0.143<br/>samples = 361<br/>value = [333.0, 28.0]<br/>class = No>, fillcolor="#e78c4a"] ;
56 -> 57 ;
58 [label=<cons.conf.idx &le; -30.75<br/>gini = 0.129<br/>samples = 346<br/>value = [322.0, 24.0]<br/>class = No>, fillcolor="#e78a48"] ;
57 -> 58 ;
59 [label=<job_blue-collar &le; 0.5<br/>gini = 0.071<br/>samples = 216<br/>value = [208, 8]<br/>class = No>, fillcolor="#e68641"] ;
58 -> 59 ;
60 [label=<month_jul &le; 0.5<br/>gini = 0.056<br/>samples = 209<br/>value = [203, 6]<br/>class = No>, fillcolor="#e6853f"] ;
59 -> 60 ;
61 [label=<age &le; 52.0<br/>gini = 0.023<br/>samples = 173<br/>value = [171, 2]<br/>class = No>, fillcolor="#e5823b"] ;
60 -> 61 ;
62 [label=<gini = 0.0<br/>samples = 131<br/>value = [131, 0]<br/>class = No>, fillcolor="#e58139"] ;
61 -> 62 ;
63 [label=<age &le; 53.5<br/>gini = 0.091<br/>samples = 42<br/>value = [40, 2]<br/>class = No>, fillcolor="#e68743"] ;
61 -> 63 ;
64 [label=<duration &le; 89.0<br/>gini = 0.5<br/>samples = 2<br/>value = [1, 1]<br/>class = No>, fillcolor="#ffffff"] ;
63 -> 64 ;
65 [label=<gini = 0.0<br/>samples = 1<br/>value = [1, 0]<br/>class = No>, fillcolor="#e58139"] ;
64 -> 65 ;
66 [label=<gini = 0.0<br/>samples = 1<br/>value = [0, 1]<br/>class = Yes>, fillcolor="#399de5"] ;
64 -> 66 ;
67 [label=<duration &le; 115.0<br/>gini = 0.049<br/>samples = 40<br/>value = [39, 1]<br/>class = No>, fillcolor="#e6843e"] ;
63 -> 67 ;
68 [label=<gini = 0.0<br/>samples = 33<br/>value = [33, 0]<br/>class = No>, fillcolor="#e58139"] ;
67 -> 68 ;
69 [label=<housing_yes &le; 0.5<br/>gini = 0.245<br/>samples = 7<br/>value = [6, 1]<br/>class = No>, fillcolor="#e9965a"] ;
67 -> 69 ;
70 [label=<gini = 0.0<br/>samples = 6<br/>value = [6, 0]<br/>class = No>, fillcolor="#e58139"] ;
69 -> 70 ;
71 [label=<gini = 0.0<br/>samples = 1<br/>value = [0, 1]<br/>class = Yes>, fillcolor="#399de5"] ;
69 -> 71 ;
72 [label=<age &le; 76.0<br/>gini = 0.198<br/>samples = 36<br/>value = [32, 4]<br/>class = No>, fillcolor="#e89152"] ;
60 -> 72 ;
73 [label=<campaign &le; 2.5<br/>gini = 0.157<br/>samples = 35<br/>value = [32, 3]<br/>class = No>, fillcolor="#e78d4c"] ;
72 -> 73 ;
74 [label=<gini = 0.0<br/>samples = 22<br/>value = [22, 0]<br/>class = No>, fillcolor="#e58139"] ;
73 -> 74 ;
75 [label=<age &le; 32.5<br/>gini = 0.355<br/>samples = 13<br/>value = [10, 3]<br/>class = No>, fillcolor="#eda774"] ;
73 -> 75 ;
76 [label=<job_student &le; 0.5<br/>gini = 0.444<br/>samples = 3<br/>value = [1, 2]<br/>class = Yes>, fillcolor="#9ccef2"] ;
75 -> 76 ;
77 [label=<gini = 0.0<br/>samples = 2<br/>value = [0, 2]<br/>class = Yes>, fillcolor="#399de5"] ;
76 -> 77 ;
78 [label=<gini = 0.0<br/>samples = 1<br/>value = [1, 0]<br/>class = No>, fillcolor="#e58139"] ;
76 -> 78 ;
79 [label=<job_retired &le; 0.5<br/>gini = 0.18<br/>samples = 10<br/>value = [9, 1]<br/>class = No>, fillcolor="#e88f4f"] ;
75 -> 79 ;
80 [label=<gini = 0.0<br/>samples = 8<br/>value = [8, 0]<br/>class = No>, fillcolor="#e58139"] ;
79 -> 80 ;
81 [label=<poutcome_nonexistent &le; 0.5<br/>gini = 0.5<br/>samples = 2<br/>value = [1, 1]<br/>class = No>, fillcolor="#ffffff"] ;
79 -> 81 ;
82 [label=<gini = 0.0<br/>samples = 1<br/>value = [1, 0]<br/>class = No>, fillcolor="#e58139"] ;
81 -> 82 ;
83 [label=<gini = 0.0<br/>samples = 1<br/>value = [0, 1]<br/>class = Yes>, fillcolor="#399de5"] ;
81 -> 83 ;
84 [label=<gini = 0.0<br/>samples = 1<br/>value = [0, 1]<br/>class = Yes>, fillcolor="#399de5"] ;
72 -> 84 ;
85 [label=<duration &le; 105.0<br/>gini = 0.408<br/>samples = 7<br/>value = [5, 2]<br/>class = No>, fillcolor="#efb388"] ;
59 -> 85 ;
86 [label=<previous &le; 1.5<br/>gini = 0.444<br/>samples = 3<br/>value = [1, 2]<br/>class = Yes>, fillcolor="#9ccef2"] ;
85 -> 86 ;
87 [label=<gini = 0.0<br/>samples = 2<br/>value = [0, 2]<br/>class = Yes>, fillcolor="#399de5"] ;
86 -> 87 ;
88 [label=<gini = 0.0<br/>samples = 1<br/>value = [1, 0]<br/>class = No>, fillcolor="#e58139"] ;
86 -> 88 ;
89 [label=<gini = 0.0<br/>samples = 4<br/>value = [4, 0]<br/>class = No>, fillcolor="#e58139"] ;
85 -> 89 ;
90 [label=<loan_yes &le; 0.5<br/>gini = 0.216<br/>samples = 130<br/>value = [114, 16]<br/>class = No>, fillcolor="#e99355"] ;
58 -> 90 ;
91 [label=<duration &le; 111.0<br/>gini = 0.179<br/>samples = 111<br/>value = [100, 11]<br/>class = No>, fillcolor="#e88f4f"] ;
90 -> 91 ;
92 [label=<pdays &le; 6.5<br/>gini = 0.219<br/>samples = 88<br/>value = [77, 11]<br/>class = No>, fillcolor="#e99355"] ;
91 -> 92 ;
93 [label=<month_nov &le; 0.5<br/>gini = 0.444<br/>samples = 3<br/>value = [1, 2]<br/>class = Yes>, fillcolor="#9ccef2"] ;
92 -> 93 ;
94 [label=<gini = 0.0<br/>samples = 2<br/>value = [0, 2]<br/>class = Yes>, fillcolor="#399de5"] ;
93 -> 94 ;
95 [label=<gini = 0.0<br/>samples = 1<br/>value = [1, 0]<br/>class = No>, fillcolor="#e58139"] ;
93 -> 95 ;
96 [label=<duration &le; 109.0<br/>gini = 0.189<br/>samples = 85<br/>value = [76, 9]<br/>class = No>, fillcolor="#e89050"] ;
92 -> 96 ;
97 [label=<marital_single &le; 0.5<br/>gini = 0.174<br/>samples = 83<br/>value = [75, 8]<br/>class = No>, fillcolor="#e88e4e"] ;
96 -> 97 ;
98 [label=<age &le; 62.5<br/>gini = 0.103<br/>samples = 55<br/>value = [52, 3]<br/>class = No>, fillcolor="#e68844"] ;
97 -> 98 ;
99 [label=<education_unknown &le; 0.5<br/>gini = 0.043<br/>samples = 45<br/>value = [44, 1]<br/>class = No>, fillcolor="#e6843d"] ;
98 -> 99 ;
100 [label=<gini = 0.0<br/>samples = 41<br/>value = [41, 0]<br/>class = No>, fillcolor="#e58139"] ;
99 -> 100 ;
101 [label=<job_management &le; 0.5<br/>gini = 0.375<br/>samples = 4<br/>value = [3, 1]<br/>class = No>, fillcolor="#eeab7b"] ;
99 -> 101 ;
102 [label=<campaign &le; 3.0<br/>gini = 0.5<br/>samples = 2<br/>value = [1, 1]<br/>class = No>, fillcolor="#ffffff"] ;
101 -> 102 ;
103 [label=<gini = 0.0<br/>samples = 1<br/>value = [0, 1]<br/>class = Yes>, fillcolor="#399de5"] ;
102 -> 103 ;
104 [label=<gini = 0.0<br/>samples = 1<br/>value = [1, 0]<br/>class = No>, fillcolor="#e58139"] ;
102 -> 104 ;
105 [label=<gini = 0.0<br/>samples = 2<br/>value = [2, 0]<br/>class = No>, fillcolor="#e58139"] ;
101 -> 105 ;
106 [label=<euribor3m &le; 0.732<br/>gini = 0.32<br/>samples = 10<br/>value = [8, 2]<br/>class = No>, fillcolor="#eca06a"] ;
98 -> 106 ;
107 [label=<campaign &le; 2.5<br/>gini = 0.444<br/>samples = 3<br/>value = [1, 2]<br/>class = Yes>, fillcolor="#9ccef2"] ;
106 -> 107 ;
108 [label=<gini = 0.0<br/>samples = 2<br/>value = [0, 2]<br/>class = Yes>, fillcolor="#399de5"] ;
107 -> 108 ;
109 [label=<gini = 0.0<br/>samples = 1<br/>value = [1, 0]<br/>class = No>, fillcolor="#e58139"] ;
107 -> 109 ;
110 [label=<gini = 0.0<br/>samples = 7<br/>value = [7, 0]<br/>class = No>, fillcolor="#e58139"] ;
106 -> 110 ;
111 [label=<duration &le; 99.5<br/>gini = 0.293<br/>samples = 28<br/>value = [23, 5]<br/>class = No>, fillcolor="#eb9c64"] ;
97 -> 111 ;
112 [label=<duration &le; 79.5<br/>gini = 0.165<br/>samples = 22<br/>value = [20, 2]<br/>class = No>, fillcolor="#e88e4d"] ;
111 -> 112 ;
113 [label=<gini = 0.0<br/>samples = 1<br/>value = [0, 1]<br/>class = Yes>, fillcolor="#399de5"] ;
112 -> 113 ;
114 [label=<job_technician &le; 0.5<br/>gini = 0.091<br/>samples = 21<br/>value = [20, 1]<br/>class = No>, fillcolor="#e68743"] ;
112 -> 114 ;
115 [label=<gini = 0.0<br/>samples = 19<br/>value = [19, 0]<br/>class = No>, fillcolor="#e58139"] ;
114 -> 115 ;
116 [label=<housing_yes &le; 0.5<br/>gini = 0.5<br/>samples = 2<br/>value = [1, 1]<br/>class = No>, fillcolor="#ffffff"] ;
114 -> 116 ;
117 [label=<gini = 0.0<br/>samples = 1<br/>value = [0, 1]<br/>class = Yes>, fillcolor="#399de5"] ;
116 -> 117 ;
118 [label=<gini = 0.0<br/>samples = 1<br/>value = [1, 0]<br/>class = No>, fillcolor="#e58139"] ;
116 -> 118 ;
119 [label=<campaign &le; 1.5<br/>gini = 0.5<br/>samples = 6<br/>value = [3, 3]<br/>class = No>, fillcolor="#ffffff"] ;
111 -> 119 ;
120 [label=<gini = 0.0<br/>samples = 2<br/>value = [0, 2]<br/>class = Yes>, fillcolor="#399de5"] ;
119 -> 120 ;
121 [label=<euribor3m &le; 0.757<br/>gini = 0.375<br/>samples = 4<br/>value = [3, 1]<br/>class = No>, fillcolor="#eeab7b"] ;
119 -> 121 ;
122 [label=<gini = 0.0<br/>samples = 3<br/>value = [3, 0]<br/>class = No>, fillcolor="#e58139"] ;
121 -> 122 ;
123 [label=<gini = 0.0<br/>samples = 1<br/>value = [0, 1]<br/>class = Yes>, fillcolor="#399de5"] ;
121 -> 123 ;
124 [label=<cons.conf.idx &le; -28.5<br/>gini = 0.5<br/>samples = 2<br/>value = [1, 1]<br/>class = No>, fillcolor="#ffffff"] ;
96 -> 124 ;
125 [label=<gini = 0.0<br/>samples = 1<br/>value = [0, 1]<br/>class = Yes>, fillcolor="#399de5"] ;
124 -> 125 ;
126 [label=<gini = 0.0<br/>samples = 1<br/>value = [1, 0]<br/>class = No>, fillcolor="#e58139"] ;
124 -> 126 ;
127 [label=<gini = 0.0<br/>samples = 23<br/>value = [23, 0]<br/>class = No>, fillcolor="#e58139"] ;
91 -> 127 ;
128 [label=<contact_telephone &le; 0.5<br/>gini = 0.388<br/>samples = 19<br/>value = [14, 5]<br/>class = No>, fillcolor="#eeae80"] ;
90 -> 128 ;
129 [label=<day_of_week_mon &le; 0.5<br/>gini = 0.291<br/>samples = 17<br/>value = [14, 3]<br/>class = No>, fillcolor="#eb9c63"] ;
128 -> 129 ;
130 [label=<job_blue-collar &le; 0.5<br/>gini = 0.133<br/>samples = 14<br/>value = [13, 1]<br/>class = No>, fillcolor="#e78b48"] ;
129 -> 130 ;
131 [label=<gini = 0.0<br/>samples = 12<br/>value = [12, 0]<br/>class = No>, fillcolor="#e58139"] ;
130 -> 131 ;
132 [label=<duration &le; 104.0<br/>gini = 0.5<br/>samples = 2<br/>value = [1, 1]<br/>class = No>, fillcolor="#ffffff"] ;
130 -> 132 ;
133 [label=<gini = 0.0<br/>samples = 1<br/>value = [1, 0]<br/>class = No>, fillcolor="#e58139"] ;
132 -> 133 ;
134 [label=<gini = 0.0<br/>samples = 1<br/>value = [0, 1]<br/>class = Yes>, fillcolor="#399de5"] ;
132 -> 134 ;
135 [label=<job_blue-collar &le; 0.5<br/>gini = 0.444<br/>samples = 3<br/>value = [1, 2]<br/>class = Yes>, fillcolor="#9ccef2"] ;
129 -> 135 ;
136 [label=<gini = 0.0<br/>samples = 2<br/>value = [0, 2]<br/>class = Yes>, fillcolor="#399de5"] ;
135 -> 136 ;
137 [label=<gini = 0.0<br/>samples = 1<br/>value = [1, 0]<br/>class = No>, fillcolor="#e58139"] ;
135 -> 137 ;
138 [label=<gini = 0.0<br/>samples = 2<br/>value = [0, 2]<br/>class = Yes>, fillcolor="#399de5"] ;
128 -> 138 ;
139 [label=<housing_yes &le; 0.5<br/>gini = 0.391<br/>samples = 15<br/>value = [11, 4]<br/>class = No>, fillcolor="#eeaf81"] ;
57 -> 139 ;
140 [label=<gini = 0.0<br/>samples = 8<br/>value = [8, 0]<br/>class = No>, fillcolor="#e58139"] ;
139 -> 140 ;
141 [label=<campaign &le; 2.5<br/>gini = 0.49<br/>samples = 7<br/>value = [3, 4]<br/>class = Yes>, fillcolor="#cee6f8"] ;
139 -> 141 ;
142 [label=<gini = 0.0<br/>samples = 4<br/>value = [0, 4]<br/>class = Yes>, fillcolor="#399de5"] ;
141 -> 142 ;
143 [label=<gini = 0.0<br/>samples = 3<br/>value = [3, 0]<br/>class = No>, fillcolor="#e58139"] ;
141 -> 143 ;
144 [label=<cons.conf.idx &le; -32.2<br/>gini = 0.34<br/>samples = 46<br/>value = [36, 10]<br/>class = No>, fillcolor="#eca470"] ;
56 -> 144 ;
145 [label=<month_nov &le; 0.5<br/>gini = 0.095<br/>samples = 20<br/>value = [19, 1]<br/>class = No>, fillcolor="#e68843"] ;
144 -> 145 ;
146 [label=<gini = 0.0<br/>samples = 18<br/>value = [18, 0]<br/>class = No>, fillcolor="#e58139"] ;
145 -> 146 ;
147 [label=<marital_single &le; 0.5<br/>gini = 0.5<br/>samples = 2<br/>value = [1, 1]<br/>class = No>, fillcolor="#ffffff"] ;
145 -> 147 ;
148 [label=<gini = 0.0<br/>samples = 1<br/>value = [0, 1]<br/>class = Yes>, fillcolor="#399de5"] ;
147 -> 148 ;
149 [label=<gini = 0.0<br/>samples = 1<br/>value = [1, 0]<br/>class = No>, fillcolor="#e58139"] ;
147 -> 149 ;
150 [label=<job_blue-collar &le; 0.5<br/>gini = 0.453<br/>samples = 26<br/>value = [17, 9]<br/>class = No>, fillcolor="#f3c4a2"] ;
144 -> 150 ;
151 [label=<previous &le; 0.5<br/>gini = 0.495<br/>samples = 20<br/>value = [11, 9]<br/>class = No>, fillcolor="#fae8db"] ;
150 -> 151 ;
152 [label=<age &le; 71.5<br/>gini = 0.473<br/>samples = 13<br/>value = [5, 8]<br/>class = Yes>, fillcolor="#b5daf5"] ;
151 -> 152 ;
153 [label=<duration &le; 114.0<br/>gini = 0.397<br/>samples = 11<br/>value = [3, 8]<br/>class = Yes>, fillcolor="#83c2ef"] ;
152 -> 153 ;
154 [label=<campaign &le; 3.5<br/>gini = 0.219<br/>samples = 8<br/>value = [1, 7]<br/>class = Yes>, fillcolor="#55abe9"] ;
153 -> 154 ;
155 [label=<gini = 0.0<br/>samples = 7<br/>value = [0, 7]<br/>class = Yes>, fillcolor="#399de5"] ;
154 -> 155 ;
156 [label=<gini = 0.0<br/>samples = 1<br/>value = [1, 0]<br/>class = No>, fillcolor="#e58139"] ;
154 -> 156 ;
157 [label=<duration &le; 118.5<br/>gini = 0.444<br/>samples = 3<br/>value = [2, 1]<br/>class = No>, fillcolor="#f2c09c"] ;
153 -> 157 ;
158 [label=<gini = 0.0<br/>samples = 2<br/>value = [2, 0]<br/>class = No>, fillcolor="#e58139"] ;
157 -> 158 ;
159 [label=<gini = 0.0<br/>samples = 1<br/>value = [0, 1]<br/>class = Yes>, fillcolor="#399de5"] ;
157 -> 159 ;
160 [label=<gini = 0.0<br/>samples = 2<br/>value = [2, 0]<br/>class = No>, fillcolor="#e58139"] ;
152 -> 160 ;
161 [label=<duration &le; 104.5<br/>gini = 0.245<br/>samples = 7<br/>value = [6, 1]<br/>class = No>, fillcolor="#e9965a"] ;
151 -> 161 ;
162 [label=<gini = 0.0<br/>samples = 6<br/>value = [6, 0]<br/>class = No>, fillcolor="#e58139"] ;
161 -> 162 ;
163 [label=<gini = 0.0<br/>samples = 1<br/>value = [0, 1]<br/>class = Yes>, fillcolor="#399de5"] ;
161 -> 163 ;
164 [label=<gini = 0.0<br/>samples = 6<br/>value = [6, 0]<br/>class = No>, fillcolor="#e58139"] ;
150 -> 164 ;
165 [label=<age &le; 52.5<br/>gini = 0.323<br/>samples = 84<br/>value = [67, 17]<br/>class = No>, fillcolor="#eca16b"] ;
55 -> 165 ;
166 [label=<campaign &le; 6.0<br/>gini = 0.284<br/>samples = 76<br/>value = [63, 13]<br/>class = No>, fillcolor="#ea9b62"] ;
165 -> 166 ;
167 [label=<education_basic.9y &le; 0.5<br/>gini = 0.269<br/>samples = 75<br/>value = [63, 12]<br/>class = No>, fillcolor="#ea995f"] ;
166 -> 167 ;
168 [label=<education_university.degree &le; 0.5<br/>gini = 0.23<br/>samples = 68<br/>value = [59, 9]<br/>class = No>, fillcolor="#e99457"] ;
167 -> 168 ;
169 [label=<loan_yes &le; 0.5<br/>gini = 0.069<br/>samples = 28<br/>value = [27, 1]<br/>class = No>, fillcolor="#e68640"] ;
168 -> 169 ;
170 [label=<gini = 0.0<br/>samples = 24<br/>value = [24, 0]<br/>class = No>, fillcolor="#e58139"] ;
169 -> 170 ;
171 [label=<day_of_week_mon &le; 0.5<br/>gini = 0.375<br/>samples = 4<br/>value = [3, 1]<br/>class = No>, fillcolor="#eeab7b"] ;
169 -> 171 ;
172 [label=<gini = 0.0<br/>samples = 3<br/>value = [3, 0]<br/>class = No>, fillcolor="#e58139"] ;
171 -> 172 ;
173 [label=<gini = 0.0<br/>samples = 1<br/>value = [0, 1]<br/>class = Yes>, fillcolor="#399de5"] ;
171 -> 173 ;
174 [label=<duration &le; 120.0<br/>gini = 0.32<br/>samples = 40<br/>value = [32, 8]<br/>class = No>, fillcolor="#eca06a"] ;
168 -> 174 ;
175 [label=<day_of_week_mon &le; 0.5<br/>gini = 0.295<br/>samples = 39<br/>value = [32, 7]<br/>class = No>, fillcolor="#eb9d64"] ;
174 -> 175 ;
176 [label=<duration &le; 90.5<br/>gini = 0.219<br/>samples = 32<br/>value = [28, 4]<br/>class = No>, fillcolor="#e99355"] ;
175 -> 176 ;
177 [label=<day_of_week_thu &le; 0.5<br/>gini = 0.469<br/>samples = 8<br/>value = [5, 3]<br/>class = No>, fillcolor="#f5cdb0"] ;
176 -> 177 ;
178 [label=<loan_yes &le; 0.5<br/>gini = 0.278<br/>samples = 6<br/>value = [5, 1]<br/>class = No>, fillcolor="#ea9a61"] ;
177 -> 178 ;
179 [label=<gini = 0.0<br/>samples = 4<br/>value = [4, 0]<br/>class = No>, fillcolor="#e58139"] ;
178 -> 179 ;
180 [label=<campaign &le; 1.5<br/>gini = 0.5<br/>samples = 2<br/>value = [1, 1]<br/>class = No>, fillcolor="#ffffff"] ;
178 -> 180 ;
181 [label=<gini = 0.0<br/>samples = 1<br/>value = [0, 1]<br/>class = Yes>, fillcolor="#399de5"] ;
180 -> 181 ;
182 [label=<gini = 0.0<br/>samples = 1<br/>value = [1, 0]<br/>class = No>, fillcolor="#e58139"] ;
180 -> 182 ;
183 [label=<gini = 0.0<br/>samples = 2<br/>value = [0, 2]<br/>class = Yes>, fillcolor="#399de5"] ;
177 -> 183 ;
184 [label=<age &le; 39.5<br/>gini = 0.08<br/>samples = 24<br/>value = [23, 1]<br/>class = No>, fillcolor="#e68642"] ;
176 -> 184 ;
185 [label=<gini = 0.0<br/>samples = 21<br/>value = [21, 0]<br/>class = No>, fillcolor="#e58139"] ;
184 -> 185 ;
186 [label=<job_management &le; 0.5<br/>gini = 0.444<br/>samples = 3<br/>value = [2, 1]<br/>class = No>, fillcolor="#f2c09c"] ;
184 -> 186 ;
187 [label=<gini = 0.0<br/>samples = 2<br/>value = [2, 0]<br/>class = No>, fillcolor="#e58139"] ;
186 -> 187 ;
188 [label=<gini = 0.0<br/>samples = 1<br/>value = [0, 1]<br/>class = Yes>, fillcolor="#399de5"] ;
186 -> 188 ;
189 [label=<age &le; 42.0<br/>gini = 0.49<br/>samples = 7<br/>value = [4, 3]<br/>class = No>, fillcolor="#f8e0ce"] ;
175 -> 189 ;
190 [label=<campaign &le; 1.5<br/>gini = 0.48<br/>samples = 5<br/>value = [2, 3]<br/>class = Yes>, fillcolor="#bddef6"] ;
189 -> 190 ;
191 [label=<gini = 0.0<br/>samples = 3<br/>value = [0, 3]<br/>class = Yes>, fillcolor="#399de5"] ;
190 -> 191 ;
192 [label=<gini = 0.0<br/>samples = 2<br/>value = [2, 0]<br/>class = No>, fillcolor="#e58139"] ;
190 -> 192 ;
193 [label=<gini = 0.0<br/>samples = 2<br/>value = [2, 0]<br/>class = No>, fillcolor="#e58139"] ;
189 -> 193 ;
194 [label=<gini = 0.0<br/>samples = 1<br/>value = [0, 1]<br/>class = Yes>, fillcolor="#399de5"] ;
174 -> 194 ;
195 [label=<age &le; 38.5<br/>gini = 0.49<br/>samples = 7<br/>value = [4, 3]<br/>class = No>, fillcolor="#f8e0ce"] ;
167 -> 195 ;
196 [label=<duration &le; 98.0<br/>gini = 0.48<br/>samples = 5<br/>value = [2, 3]<br/>class = Yes>, fillcolor="#bddef6"] ;
195 -> 196 ;
197 [label=<job_services &le; 0.5<br/>gini = 0.444<br/>samples = 3<br/>value = [2, 1]<br/>class = No>, fillcolor="#f2c09c"] ;
196 -> 197 ;
198 [label=<gini = 0.0<br/>samples = 2<br/>value = [2, 0]<br/>class = No>, fillcolor="#e58139"] ;
197 -> 198 ;
199 [label=<gini = 0.0<br/>samples = 1<br/>value = [0, 1]<br/>class = Yes>, fillcolor="#399de5"] ;
197 -> 199 ;
200 [label=<gini = 0.0<br/>samples = 2<br/>value = [0, 2]<br/>class = Yes>, fillcolor="#399de5"] ;
196 -> 200 ;
201 [label=<gini = 0.0<br/>samples = 2<br/>value = [2, 0]<br/>class = No>, fillcolor="#e58139"] ;
195 -> 201 ;
202 [label=<gini = 0.0<br/>samples = 1<br/>value = [0, 1]<br/>class = Yes>, fillcolor="#399de5"] ;
166 -> 202 ;
203 [label=<duration &le; 98.0<br/>gini = 0.5<br/>samples = 8<br/>value = [4, 4]<br/>class = No>, fillcolor="#ffffff"] ;
165 -> 203 ;
204 [label=<gini = 0.0<br/>samples = 2<br/>value = [2, 0]<br/>class = No>, fillcolor="#e58139"] ;
203 -> 204 ;
205 [label=<housing_yes &le; 0.5<br/>gini = 0.444<br/>samples = 6<br/>value = [2, 4]<br/>class = Yes>, fillcolor="#9ccef2"] ;
203 -> 205 ;
206 [label=<job_management &le; 0.5<br/>gini = 0.444<br/>samples = 3<br/>value = [2, 1]<br/>class = No>, fillcolor="#f2c09c"] ;
205 -> 206 ;
207 [label=<gini = 0.0<br/>samples = 2<br/>value = [2, 0]<br/>class = No>, fillcolor="#e58139"] ;
206 -> 207 ;
208 [label=<gini = 0.0<br/>samples = 1<br/>value = [0, 1]<br/>class = Yes>, fillcolor="#399de5"] ;
206 -> 208 ;
209 [label=<gini = 0.0<br/>samples = 3<br/>value = [0, 3]<br/>class = Yes>, fillcolor="#399de5"] ;
205 -> 209 ;
210 [label=<pdays &le; 6.5<br/>gini = 0.399<br/>samples = 443<br/>value = [321, 122]<br/>class = No>, fillcolor="#efb184"] ;
2 -> 210 ;
211 [label=<day_of_week_mon &le; 0.5<br/>gini = 0.495<br/>samples = 80<br/>value = [44, 36]<br/>class = No>, fillcolor="#fae8db"] ;
210 -> 211 ;
212 [label=<cons.price.idx &le; 94.041<br/>gini = 0.487<br/>samples = 55<br/>value = [23, 32]<br/>class = Yes>, fillcolor="#c7e3f8"] ;
211 -> 212 ;
213 [label=<marital_single &le; 0.5<br/>gini = 0.427<br/>samples = 42<br/>value = [13, 29]<br/>class = Yes>, fillcolor="#92c9f1"] ;
212 -> 213 ;
214 [label=<job_unemployed &le; 0.5<br/>gini = 0.278<br/>samples = 24<br/>value = [4, 20]<br/>class = Yes>, fillcolor="#61b1ea"] ;
213 -> 214 ;
215 [label=<duration &le; 163.0<br/>gini = 0.227<br/>samples = 23<br/>value = [3, 20]<br/>class = Yes>, fillcolor="#57ace9"] ;
214 -> 215 ;
216 [label=<job_self-employed &le; 0.5<br/>gini = 0.165<br/>samples = 22<br/>value = [2, 20]<br/>class = Yes>, fillcolor="#4da7e8"] ;
215 -> 216 ;
217 [label=<duration &le; 154.0<br/>gini = 0.095<br/>samples = 20<br/>value = [1, 19]<br/>class = Yes>, fillcolor="#43a2e6"] ;
216 -> 217 ;
218 [label=<gini = 0.0<br/>samples = 16<br/>value = [0, 16]<br/>class = Yes>, fillcolor="#399de5"] ;
217 -> 218 ;
219 [label=<age &le; 73.5<br/>gini = 0.375<br/>samples = 4<br/>value = [1, 3]<br/>class = Yes>, fillcolor="#7bbeee"] ;
217 -> 219 ;
220 [label=<gini = 0.0<br/>samples = 1<br/>value = [1, 0]<br/>class = No>, fillcolor="#e58139"] ;
219 -> 220 ;
221 [label=<gini = 0.0<br/>samples = 3<br/>value = [0, 3]<br/>class = Yes>, fillcolor="#399de5"] ;
219 -> 221 ;
222 [label=<month_aug &le; 0.5<br/>gini = 0.5<br/>samples = 2<br/>value = [1, 1]<br/>class = No>, fillcolor="#ffffff"] ;
216 -> 222 ;
223 [label=<gini = 0.0<br/>samples = 1<br/>value = [0, 1]<br/>class = Yes>, fillcolor="#399de5"] ;
222 -> 223 ;
224 [label=<gini = 0.0<br/>samples = 1<br/>value = [1, 0]<br/>class = No>, fillcolor="#e58139"] ;
222 -> 224 ;
225 [label=<gini = 0.0<br/>samples = 1<br/>value = [1, 0]<br/>class = No>, fillcolor="#e58139"] ;
215 -> 225 ;
226 [label=<gini = 0.0<br/>samples = 1<br/>value = [1, 0]<br/>class = No>, fillcolor="#e58139"] ;
214 -> 226 ;
227 [label=<poutcome_success &le; 0.5<br/>gini = 0.5<br/>samples = 18<br/>value = [9, 9]<br/>class = No>, fillcolor="#ffffff"] ;
213 -> 227 ;
228 [label=<gini = 0.0<br/>samples = 2<br/>value = [0, 2]<br/>class = Yes>, fillcolor="#399de5"] ;
227 -> 228 ;
229 [label=<day_of_week_thu &le; 0.5<br/>gini = 0.492<br/>samples = 16<br/>value = [9, 7]<br/>class = No>, fillcolor="#f9e3d3"] ;
227 -> 229 ;
230 [label=<cons.conf.idx &le; -33.9<br/>gini = 0.459<br/>samples = 14<br/>value = [9, 5]<br/>class = No>, fillcolor="#f3c7a7"] ;
229 -> 230 ;
231 [label=<cons.price.idx &le; 93.698<br/>gini = 0.444<br/>samples = 6<br/>value = [2, 4]<br/>class = Yes>, fillcolor="#9ccef2"] ;
230 -> 231 ;
232 [label=<job_services &le; 0.5<br/>gini = 0.32<br/>samples = 5<br/>value = [1, 4]<br/>class = Yes>, fillcolor="#6ab6ec"] ;
231 -> 232 ;
233 [label=<gini = 0.0<br/>samples = 4<br/>value = [0, 4]<br/>class = Yes>, fillcolor="#399de5"] ;
232 -> 233 ;
234 [label=<gini = 0.0<br/>samples = 1<br/>value = [1, 0]<br/>class = No>, fillcolor="#e58139"] ;
232 -> 234 ;
235 [label=<gini = 0.0<br/>samples = 1<br/>value = [1, 0]<br/>class = No>, fillcolor="#e58139"] ;
231 -> 235 ;
236 [label=<month_nov &le; 0.5<br/>gini = 0.219<br/>samples = 8<br/>value = [7, 1]<br/>class = No>, fillcolor="#e99355"] ;
230 -> 236 ;
237 [label=<gini = 0.0<br/>samples = 7<br/>value = [7, 0]<br/>class = No>, fillcolor="#e58139"] ;
236 -> 237 ;
238 [label=<gini = 0.0<br/>samples = 1<br/>value = [0, 1]<br/>class = Yes>, fillcolor="#399de5"] ;
236 -> 238 ;
239 [label=<gini = 0.0<br/>samples = 2<br/>value = [0, 2]<br/>class = Yes>, fillcolor="#399de5"] ;
229 -> 239 ;
240 [label=<duration &le; 149.0<br/>gini = 0.355<br/>samples = 13<br/>value = [10, 3]<br/>class = No>, fillcolor="#eda774"] ;
212 -> 240 ;
241 [label=<gini = 0.0<br/>samples = 9<br/>value = [9, 0]<br/>class = No>, fillcolor="#e58139"] ;
240 -> 241 ;
242 [label=<duration &le; 158.0<br/>gini = 0.375<br/>samples = 4<br/>value = [1, 3]<br/>class = Yes>, fillcolor="#7bbeee"] ;
240 -> 242 ;
243 [label=<gini = 0.0<br/>samples = 3<br/>value = [0, 3]<br/>class = Yes>, fillcolor="#399de5"] ;
242 -> 243 ;
244 [label=<gini = 0.0<br/>samples = 1<br/>value = [1, 0]<br/>class = No>, fillcolor="#e58139"] ;
242 -> 244 ;
245 [label=<duration &le; 158.5<br/>gini = 0.269<br/>samples = 25<br/>value = [21, 4]<br/>class = No>, fillcolor="#ea995f"] ;
211 -> 245 ;
246 [label=<euribor3m &le; 1.274<br/>gini = 0.091<br/>samples = 21<br/>value = [20, 1]<br/>class = No>, fillcolor="#e68743"] ;
245 -> 246 ;
247 [label=<gini = 0.0<br/>samples = 19<br/>value = [19, 0]<br/>class = No>, fillcolor="#e58139"] ;
246 -> 247 ;
248 [label=<job_management &le; 0.5<br/>gini = 0.5<br/>samples = 2<br/>value = [1, 1]<br/>class = No>, fillcolor="#ffffff"] ;
246 -> 248 ;
249 [label=<gini = 0.0<br/>samples = 1<br/>value = [0, 1]<br/>class = Yes>, fillcolor="#399de5"] ;
248 -> 249 ;
250 [label=<gini = 0.0<br/>samples = 1<br/>value = [1, 0]<br/>class = No>, fillcolor="#e58139"] ;
248 -> 250 ;
251 [label=<job_technician &le; 0.5<br/>gini = 0.375<br/>samples = 4<br/>value = [1, 3]<br/>class = Yes>, fillcolor="#7bbeee"] ;
245 -> 251 ;
252 [label=<gini = 0.0<br/>samples = 3<br/>value = [0, 3]<br/>class = Yes>, fillcolor="#399de5"] ;
251 -> 252 ;
253 [label=<gini = 0.0<br/>samples = 1<br/>value = [1, 0]<br/>class = No>, fillcolor="#e58139"] ;
251 -> 253 ;
254 [label=<emp.var.rate &le; -1.75<br/>gini = 0.362<br/>samples = 363<br/>value = [277, 86]<br/>class = No>, fillcolor="#eda876"] ;
210 -> 254 ;
255 [label=<contact_telephone &le; 0.5<br/>gini = 0.403<br/>samples = 290<br/>value = [209, 81]<br/>class = No>, fillcolor="#efb286"] ;
254 -> 255 ;
256 [label=<cons.conf.idx &le; -28.35<br/>gini = 0.422<br/>samples = 264<br/>value = [184, 80]<br/>class = No>, fillcolor="#f0b88f"] ;
255 -> 256 ;
257 [label=<duration &le; 158.5<br/>gini = 0.401<br/>samples = 231<br/>value = [167, 64]<br/>class = No>, fillcolor="#efb185"] ;
256 -> 257 ;
258 [label=<duration &le; 137.5<br/>gini = 0.372<br/>samples = 194<br/>value = [146, 48]<br/>class = No>, fillcolor="#eeaa7a"] ;
257 -> 258 ;
259 [label=<job_student &le; 0.5<br/>gini = 0.46<br/>samples = 64<br/>value = [41, 23]<br/>class = No>, fillcolor="#f4c8a8"] ;
258 -> 259 ;
260 [label=<pdays &le; 504.0<br/>gini = 0.423<br/>samples = 56<br/>value = [39, 17]<br/>class = No>, fillcolor="#f0b88f"] ;
259 -> 260 ;
261 [label=<gini = 0.0<br/>samples = 2<br/>value = [0, 2]<br/>class = Yes>, fillcolor="#399de5"] ;
260 -> 261 ;
262 [label=<job_management &le; 0.5<br/>gini = 0.401<br/>samples = 54<br/>value = [39, 15]<br/>class = No>, fillcolor="#efb185"] ;
260 -> 262 ;
263 [label=<education_basic.6y &le; 0.5<br/>gini = 0.37<br/>samples = 49<br/>value = [37, 12]<br/>class = No>, fillcolor="#edaa79"] ;
262 -> 263 ;
264 [label=<poutcome_nonexistent &le; 0.5<br/>gini = 0.353<br/>samples = 48<br/>value = [37, 11]<br/>class = No>, fillcolor="#eda674"] ;
263 -> 264 ;
265 [label=<education_professional.course &le; 0.5<br/>gini = 0.111<br/>samples = 17<br/>value = [16, 1]<br/>class = No>, fillcolor="#e78945"] ;
264 -> 265 ;
266 [label=<gini = 0.0<br/>samples = 16<br/>value = [16, 0]<br/>class = No>, fillcolor="#e58139"] ;
265 -> 266 ;
267 [label=<gini = 0.0<br/>samples = 1<br/>value = [0, 1]<br/>class = Yes>, fillcolor="#399de5"] ;
265 -> 267 ;
268 [label=<marital_married &le; 0.5<br/>gini = 0.437<br/>samples = 31<br/>value = [21, 10]<br/>class = No>, fillcolor="#f1bd97"] ;
264 -> 268 ;
269 [label=<age &le; 47.0<br/>gini = 0.5<br/>samples = 14<br/>value = [7, 7]<br/>class = No>, fillcolor="#ffffff"] ;
268 -> 269 ;
270 [label=<age &le; 33.5<br/>gini = 0.486<br/>samples = 12<br/>value = [7, 5]<br/>class = No>, fillcolor="#f8dbc6"] ;
269 -> 270 ;
271 [label=<age &le; 28.5<br/>gini = 0.494<br/>samples = 9<br/>value = [4, 5]<br/>class = Yes>, fillcolor="#d7ebfa"] ;
270 -> 271 ;
272 [label=<loan_yes &le; 0.5<br/>gini = 0.444<br/>samples = 6<br/>value = [4, 2]<br/>class = No>, fillcolor="#f2c09c"] ;
271 -> 272 ;
273 [label=<emp.var.rate &le; -3.15<br/>gini = 0.32<br/>samples = 5<br/>value = [4, 1]<br/>class = No>, fillcolor="#eca06a"] ;
272 -> 273 ;
274 [label=<gini = 0.0<br/>samples = 1<br/>value = [0, 1]<br/>class = Yes>, fillcolor="#399de5"] ;
273 -> 274 ;
275 [label=<gini = 0.0<br/>samples = 4<br/>value = [4, 0]<br/>class = No>, fillcolor="#e58139"] ;
273 -> 275 ;
276 [label=<gini = 0.0<br/>samples = 1<br/>value = [0, 1]<br/>class = Yes>, fillcolor="#399de5"] ;
272 -> 276 ;
277 [label=<gini = 0.0<br/>samples = 3<br/>value = [0, 3]<br/>class = Yes>, fillcolor="#399de5"] ;
271 -> 277 ;
278 [label=<gini = 0.0<br/>samples = 3<br/>value = [3, 0]<br/>class = No>, fillcolor="#e58139"] ;
270 -> 278 ;
279 [label=<gini = 0.0<br/>samples = 2<br/>value = [0, 2]<br/>class = Yes>, fillcolor="#399de5"] ;
269 -> 279 ;
280 [label=<age &le; 39.0<br/>gini = 0.291<br/>samples = 17<br/>value = [14, 3]<br/>class = No>, fillcolor="#eb9c63"] ;
268 -> 280 ;
281 [label=<gini = 0.0<br/>samples = 1<br/>value = [0, 1]<br/>class = Yes>, fillcolor="#399de5"] ;
280 -> 281 ;
282 [label=<duration &le; 125.5<br/>gini = 0.219<br/>samples = 16<br/>value = [14, 2]<br/>class = No>, fillcolor="#e99355"] ;
280 -> 282 ;
283 [label=<gini = 0.0<br/>samples = 1<br/>value = [0, 1]<br/>class = Yes>, fillcolor="#399de5"] ;
282 -> 283 ;
284 [label=<day_of_week_tue &le; 0.5<br/>gini = 0.124<br/>samples = 15<br/>value = [14, 1]<br/>class = No>, fillcolor="#e78a47"] ;
282 -> 284 ;
285 [label=<gini = 0.0<br/>samples = 13<br/>value = [13, 0]<br/>class = No>, fillcolor="#e58139"] ;
284 -> 285 ;
286 [label=<month_aug &le; 0.5<br/>gini = 0.5<br/>samples = 2<br/>value = [1, 1]<br/>class = No>, fillcolor="#ffffff"] ;
284 -> 286 ;
287 [label=<gini = 0.0<br/>samples = 1<br/>value = [1, 0]<br/>class = No>, fillcolor="#e58139"] ;
286 -> 287 ;
288 [label=<gini = 0.0<br/>samples = 1<br/>value = [0, 1]<br/>class = Yes>, fillcolor="#399de5"] ;
286 -> 288 ;
289 [label=<gini = 0.0<br/>samples = 1<br/>value = [0, 1]<br/>class = Yes>, fillcolor="#399de5"] ;
263 -> 289 ;
290 [label=<age &le; 41.0<br/>gini = 0.48<br/>samples = 5<br/>value = [2, 3]<br/>class = Yes>, fillcolor="#bddef6"] ;
262 -> 290 ;
291 [label=<gini = 0.0<br/>samples = 2<br/>value = [0, 2]<br/>class = Yes>, fillcolor="#399de5"] ;
290 -> 291 ;
292 [label=<cons.conf.idx &le; -35.05<br/>gini = 0.444<br/>samples = 3<br/>value = [2, 1]<br/>class = No>, fillcolor="#f2c09c"] ;
290 -> 292 ;
293 [label=<gini = 0.0<br/>samples = 2<br/>value = [2, 0]<br/>class = No>, fillcolor="#e58139"] ;
292 -> 293 ;
294 [label=<gini = 0.0<br/>samples = 1<br/>value = [0, 1]<br/>class = Yes>, fillcolor="#399de5"] ;
292 -> 294 ;
295 [label=<education_high.school &le; 0.5<br/>gini = 0.375<br/>samples = 8<br/>value = [2, 6]<br/>class = Yes>, fillcolor="#7bbeee"] ;
259 -> 295 ;
296 [label=<gini = 0.0<br/>samples = 5<br/>value = [0, 5]<br/>class = Yes>, fillcolor="#399de5"] ;
295 -> 296 ;
297 [label=<duration &le; 130.5<br/>gini = 0.444<br/>samples = 3<br/>value = [2, 1]<br/>class = No>, fillcolor="#f2c09c"] ;
295 -> 297 ;
298 [label=<gini = 0.0<br/>samples = 1<br/>value = [0, 1]<br/>class = Yes>, fillcolor="#399de5"] ;
297 -> 298 ;
299 [label=<gini = 0.0<br/>samples = 2<br/>value = [2, 0]<br/>class = No>, fillcolor="#e58139"] ;
297 -> 299 ;
300 [label=<euribor3m &le; 1.267<br/>gini = 0.311<br/>samples = 130<br/>value = [105, 25]<br/>class = No>, fillcolor="#eb9f68"] ;
258 -> 300 ;
301 [label=<age &le; 77.0<br/>gini = 0.29<br/>samples = 125<br/>value = [103, 22]<br/>class = No>, fillcolor="#eb9c63"] ;
300 -> 301 ;
302 [label=<month_jul &le; 0.5<br/>gini = 0.274<br/>samples = 122<br/>value = [102, 20]<br/>class = No>, fillcolor="#ea9a60"] ;
301 -> 302 ;
303 [label=<job_housemaid &le; 0.5<br/>gini = 0.252<br/>samples = 115<br/>value = [98, 17]<br/>class = No>, fillcolor="#ea975b"] ;
302 -> 303 ;
304 [label=<cons.price.idx &le; 93.812<br/>gini = 0.234<br/>samples = 111<br/>value = [96, 15]<br/>class = No>, fillcolor="#e99558"] ;
303 -> 304 ;
305 [label=<age &le; 65.5<br/>gini = 0.213<br/>samples = 107<br/>value = [94, 13]<br/>class = No>, fillcolor="#e99254"] ;
304 -> 305 ;
306 [label=<age &le; 39.0<br/>gini = 0.185<br/>samples = 97<br/>value = [87, 10]<br/>class = No>, fillcolor="#e88f50"] ;
305 -> 306 ;
307 [label=<job_management &le; 0.5<br/>gini = 0.286<br/>samples = 52<br/>value = [43, 9]<br/>class = No>, fillcolor="#ea9b62"] ;
306 -> 307 ;
308 [label=<cons.price.idx &le; 92.514<br/>gini = 0.265<br/>samples = 51<br/>value = [43, 8]<br/>class = No>, fillcolor="#ea985e"] ;
307 -> 308 ;
309 [label=<housing_yes &le; 0.5<br/>gini = 0.42<br/>samples = 20<br/>value = [14, 6]<br/>class = No>, fillcolor="#f0b78e"] ;
308 -> 309 ;
310 [label=<gini = 0.0<br/>samples = 7<br/>value = [7, 0]<br/>class = No>, fillcolor="#e58139"] ;
309 -> 310 ;
311 [label=<duration &le; 143.5<br/>gini = 0.497<br/>samples = 13<br/>value = [7, 6]<br/>class = No>, fillcolor="#fbede3"] ;
309 -> 311 ;
312 [label=<gini = 0.0<br/>samples = 4<br/>value = [4, 0]<br/>class = No>, fillcolor="#e58139"] ;
311 -> 312 ;
313 [label=<age &le; 31.0<br/>gini = 0.444<br/>samples = 9<br/>value = [3, 6]<br/>class = Yes>, fillcolor="#9ccef2"] ;
311 -> 313 ;
314 [label=<gini = 0.0<br/>samples = 4<br/>value = [0, 4]<br/>class = Yes>, fillcolor="#399de5"] ;
313 -> 314 ;
315 [label=<poutcome_nonexistent &le; 0.5<br/>gini = 0.48<br/>samples = 5<br/>value = [3, 2]<br/>class = No>, fillcolor="#f6d5bd"] ;
313 -> 315 ;
316 [label=<gini = 0.0<br/>samples = 2<br/>value = [0, 2]<br/>class = Yes>, fillcolor="#399de5"] ;
315 -> 316 ;
317 [label=<gini = 0.0<br/>samples = 3<br/>value = [3, 0]<br/>class = No>, fillcolor="#e58139"] ;
315 -> 317 ;
318 [label=<job_blue-collar &le; 0.5<br/>gini = 0.121<br/>samples = 31<br/>value = [29, 2]<br/>class = No>, fillcolor="#e78a47"] ;
308 -> 318 ;
319 [label=<age &le; 25.0<br/>gini = 0.067<br/>samples = 29<br/>value = [28, 1]<br/>class = No>, fillcolor="#e68640"] ;
318 -> 319 ;
320 [label=<emp.var.rate &le; -2.35<br/>gini = 0.245<br/>samples = 7<br/>value = [6, 1]<br/>class = No>, fillcolor="#e9965a"] ;
319 -> 320 ;
321 [label=<gini = 0.0<br/>samples = 6<br/>value = [6, 0]<br/>class = No>, fillcolor="#e58139"] ;
320 -> 321 ;
322 [label=<gini = 0.0<br/>samples = 1<br/>value = [0, 1]<br/>class = Yes>, fillcolor="#399de5"] ;
320 -> 322 ;
323 [label=<gini = 0.0<br/>samples = 22<br/>value = [22, 0]<br/>class = No>, fillcolor="#e58139"] ;
319 -> 323 ;
324 [label=<education_basic.9y &le; 0.5<br/>gini = 0.5<br/>samples = 2<br/>value = [1, 1]<br/>class = No>, fillcolor="#ffffff"] ;
318 -> 324 ;
325 [label=<gini = 0.0<br/>samples = 1<br/>value = [0, 1]<br/>class = Yes>, fillcolor="#399de5"] ;
324 -> 325 ;
326 [label=<gini = 0.0<br/>samples = 1<br/>value = [1, 0]<br/>class = No>, fillcolor="#e58139"] ;
324 -> 326 ;
327 [label=<gini = 0.0<br/>samples = 1<br/>value = [0, 1]<br/>class = Yes>, fillcolor="#399de5"] ;
307 -> 327 ;
328 [label=<euribor3m &le; 0.643<br/>gini = 0.043<br/>samples = 45<br/>value = [44, 1]<br/>class = No>, fillcolor="#e6843d"] ;
306 -> 328 ;
329 [label=<poutcome_nonexistent &le; 0.5<br/>gini = 0.5<br/>samples = 2<br/>value = [1, 1]<br/>class = No>, fillcolor="#ffffff"] ;
328 -> 329 ;
330 [label=<gini = 0.0<br/>samples = 1<br/>value = [1, 0]<br/>class = No>, fillcolor="#e58139"] ;
329 -> 330 ;
331 [label=<gini = 0.0<br/>samples = 1<br/>value = [0, 1]<br/>class = Yes>, fillcolor="#399de5"] ;
329 -> 331 ;
332 [label=<gini = 0.0<br/>samples = 43<br/>value = [43, 0]<br/>class = No>, fillcolor="#e58139"] ;
328 -> 332 ;
333 [label=<day_of_week_wed &le; 0.5<br/>gini = 0.42<br/>samples = 10<br/>value = [7, 3]<br/>class = No>, fillcolor="#f0b78e"] ;
305 -> 333 ;
334 [label=<default_unknown &le; 0.5<br/>gini = 0.219<br/>samples = 8<br/>value = [7, 1]<br/>class = No>, fillcolor="#e99355"] ;
333 -> 334 ;
335 [label=<gini = 0.0<br/>samples = 7<br/>value = [7, 0]<br/>class = No>, fillcolor="#e58139"] ;
334 -> 335 ;
336 [label=<gini = 0.0<br/>samples = 1<br/>value = [0, 1]<br/>class = Yes>, fillcolor="#399de5"] ;
334 -> 336 ;
337 [label=<gini = 0.0<br/>samples = 2<br/>value = [0, 2]<br/>class = Yes>, fillcolor="#399de5"] ;
333 -> 337 ;
338 [label=<age &le; 39.5<br/>gini = 0.5<br/>samples = 4<br/>value = [2, 2]<br/>class = No>, fillcolor="#ffffff"] ;
304 -> 338 ;
339 [label=<gini = 0.0<br/>samples = 2<br/>value = [2, 0]<br/>class = No>, fillcolor="#e58139"] ;
338 -> 339 ;
340 [label=<gini = 0.0<br/>samples = 2<br/>value = [0, 2]<br/>class = Yes>, fillcolor="#399de5"] ;
338 -> 340 ;
341 [label=<day_of_week_mon &le; 0.5<br/>gini = 0.5<br/>samples = 4<br/>value = [2, 2]<br/>class = No>, fillcolor="#ffffff"] ;
303 -> 341 ;
342 [label=<gini = 0.0<br/>samples = 2<br/>value = [0, 2]<br/>class = Yes>, fillcolor="#399de5"] ;
341 -> 342 ;
343 [label=<gini = 0.0<br/>samples = 2<br/>value = [2, 0]<br/>class = No>, fillcolor="#e58139"] ;
341 -> 343 ;
344 [label=<day_of_week_wed &le; 0.5<br/>gini = 0.49<br/>samples = 7<br/>value = [4, 3]<br/>class = No>, fillcolor="#f8e0ce"] ;
302 -> 344 ;
345 [label=<campaign &le; 4.5<br/>gini = 0.32<br/>samples = 5<br/>value = [4, 1]<br/>class = No>, fillcolor="#eca06a"] ;
344 -> 345 ;
346 [label=<gini = 0.0<br/>samples = 4<br/>value = [4, 0]<br/>class = No>, fillcolor="#e58139"] ;
345 -> 346 ;
347 [label=<gini = 0.0<br/>samples = 1<br/>value = [0, 1]<br/>class = Yes>, fillcolor="#399de5"] ;
345 -> 347 ;
348 [label=<gini = 0.0<br/>samples = 2<br/>value = [0, 2]<br/>class = Yes>, fillcolor="#399de5"] ;
344 -> 348 ;
349 [label=<marital_married &le; 0.5<br/>gini = 0.444<br/>samples = 3<br/>value = [1, 2]<br/>class = Yes>, fillcolor="#9ccef2"] ;
301 -> 349 ;
350 [label=<gini = 0.0<br/>samples = 1<br/>value = [1, 0]<br/>class = No>, fillcolor="#e58139"] ;
349 -> 350 ;
351 [label=<gini = 0.0<br/>samples = 2<br/>value = [0, 2]<br/>class = Yes>, fillcolor="#399de5"] ;
349 -> 351 ;
352 [label=<housing_yes &le; 0.5<br/>gini = 0.48<br/>samples = 5<br/>value = [2, 3]<br/>class = Yes>, fillcolor="#bddef6"] ;
300 -> 352 ;
353 [label=<gini = 0.0<br/>samples = 3<br/>value = [0, 3]<br/>class = Yes>, fillcolor="#399de5"] ;
352 -> 353 ;
354 [label=<gini = 0.0<br/>samples = 2<br/>value = [2, 0]<br/>class = No>, fillcolor="#e58139"] ;
352 -> 354 ;
355 [label=<marital_single &le; 0.5<br/>gini = 0.491<br/>samples = 37<br/>value = [21, 16]<br/>class = No>, fillcolor="#f9e1d0"] ;
257 -> 355 ;
356 [label=<job_unknown &le; 0.5<br/>gini = 0.436<br/>samples = 28<br/>value = [19, 9]<br/>class = No>, fillcolor="#f1bd97"] ;
355 -> 356 ;
357 [label=<duration &le; 160.5<br/>gini = 0.393<br/>samples = 26<br/>value = [19, 7]<br/>class = No>, fillcolor="#efaf82"] ;
356 -> 357 ;
358 [label=<job_retired &le; 0.5<br/>gini = 0.49<br/>samples = 7<br/>value = [3, 4]<br/>class = Yes>, fillcolor="#cee6f8"] ;
357 -> 358 ;
359 [label=<cons.price.idx &le; 92.29<br/>gini = 0.48<br/>samples = 5<br/>value = [3, 2]<br/>class = No>, fillcolor="#f6d5bd"] ;
358 -> 359 ;
360 [label=<gini = 0.0<br/>samples = 2<br/>value = [2, 0]<br/>class = No>, fillcolor="#e58139"] ;
359 -> 360 ;
361 [label=<housing_yes &le; 0.5<br/>gini = 0.444<br/>samples = 3<br/>value = [1, 2]<br/>class = Yes>, fillcolor="#9ccef2"] ;
359 -> 361 ;
362 [label=<gini = 0.0<br/>samples = 2<br/>value = [0, 2]<br/>class = Yes>, fillcolor="#399de5"] ;
361 -> 362 ;
363 [label=<gini = 0.0<br/>samples = 1<br/>value = [1, 0]<br/>class = No>, fillcolor="#e58139"] ;
361 -> 363 ;
364 [label=<gini = 0.0<br/>samples = 2<br/>value = [0, 2]<br/>class = Yes>, fillcolor="#399de5"] ;
358 -> 364 ;
365 [label=<age &le; 33.5<br/>gini = 0.266<br/>samples = 19<br/>value = [16, 3]<br/>class = No>, fillcolor="#ea995e"] ;
357 -> 365 ;
366 [label=<gini = 0.0<br/>samples = 1<br/>value = [0, 1]<br/>class = Yes>, fillcolor="#399de5"] ;
365 -> 366 ;
367 [label=<campaign &le; 1.5<br/>gini = 0.198<br/>samples = 18<br/>value = [16, 2]<br/>class = No>, fillcolor="#e89152"] ;
365 -> 367 ;
368 [label=<gini = 0.0<br/>samples = 11<br/>value = [11, 0]<br/>class = No>, fillcolor="#e58139"] ;
367 -> 368 ;
369 [label=<cons.conf.idx &le; -30.75<br/>gini = 0.408<br/>samples = 7<br/>value = [5, 2]<br/>class = No>, fillcolor="#efb388"] ;
367 -> 369 ;
370 [label=<loan_yes &le; 0.5<br/>gini = 0.278<br/>samples = 6<br/>value = [5, 1]<br/>class = No>, fillcolor="#ea9a61"] ;
369 -> 370 ;
371 [label=<gini = 0.0<br/>samples = 4<br/>value = [4, 0]<br/>class = No>, fillcolor="#e58139"] ;
370 -> 371 ;
372 [label=<housing_yes &le; 0.5<br/>gini = 0.5<br/>samples = 2<br/>value = [1, 1]<br/>class = No>, fillcolor="#ffffff"] ;
370 -> 372 ;
373 [label=<gini = 0.0<br/>samples = 1<br/>value = [1, 0]<br/>class = No>, fillcolor="#e58139"] ;
372 -> 373 ;
374 [label=<gini = 0.0<br/>samples = 1<br/>value = [0, 1]<br/>class = Yes>, fillcolor="#399de5"] ;
372 -> 374 ;
375 [label=<gini = 0.0<br/>samples = 1<br/>value = [0, 1]<br/>class = Yes>, fillcolor="#399de5"] ;
369 -> 375 ;
376 [label=<gini = 0.0<br/>samples = 2<br/>value = [0, 2]<br/>class = Yes>, fillcolor="#399de5"] ;
356 -> 376 ;
377 [label=<month_may &le; 0.5<br/>gini = 0.346<br/>samples = 9<br/>value = [2, 7]<br/>class = Yes>, fillcolor="#72b9ec"] ;
355 -> 377 ;
378 [label=<previous &le; 1.5<br/>gini = 0.219<br/>samples = 8<br/>value = [1, 7]<br/>class = Yes>, fillcolor="#55abe9"] ;
377 -> 378 ;
379 [label=<gini = 0.0<br/>samples = 7<br/>value = [0, 7]<br/>class = Yes>, fillcolor="#399de5"] ;
378 -> 379 ;
380 [label=<gini = 0.0<br/>samples = 1<br/>value = [1, 0]<br/>class = No>, fillcolor="#e58139"] ;
378 -> 380 ;
381 [label=<gini = 0.0<br/>samples = 1<br/>value = [1, 0]<br/>class = No>, fillcolor="#e58139"] ;
377 -> 381 ;
382 [label=<previous &le; 1.5<br/>gini = 0.5<br/>samples = 33<br/>value = [17, 16]<br/>class = No>, fillcolor="#fdf8f3"] ;
256 -> 382 ;
383 [label=<day_of_week_wed &le; 0.5<br/>gini = 0.495<br/>samples = 29<br/>value = [13, 16]<br/>class = Yes>, fillcolor="#daedfa"] ;
382 -> 383 ;
384 [label=<education_unknown &le; 0.5<br/>gini = 0.461<br/>samples = 25<br/>value = [9, 16]<br/>class = Yes>, fillcolor="#a8d4f4"] ;
383 -> 384 ;
385 [label=<job_blue-collar &le; 0.5<br/>gini = 0.423<br/>samples = 23<br/>value = [7, 16]<br/>class = Yes>, fillcolor="#90c8f0"] ;
384 -> 385 ;
386 [label=<duration &le; 135.0<br/>gini = 0.363<br/>samples = 21<br/>value = [5, 16]<br/>class = Yes>, fillcolor="#77bced"] ;
385 -> 386 ;
387 [label=<euribor3m &le; 0.735<br/>gini = 0.49<br/>samples = 7<br/>value = [4, 3]<br/>class = No>, fillcolor="#f8e0ce"] ;
386 -> 387 ;
388 [label=<duration &le; 132.0<br/>gini = 0.375<br/>samples = 4<br/>value = [1, 3]<br/>class = Yes>, fillcolor="#7bbeee"] ;
387 -> 388 ;
389 [label=<gini = 0.0<br/>samples = 3<br/>value = [0, 3]<br/>class = Yes>, fillcolor="#399de5"] ;
388 -> 389 ;
390 [label=<gini = 0.0<br/>samples = 1<br/>value = [1, 0]<br/>class = No>, fillcolor="#e58139"] ;
388 -> 390 ;
391 [label=<gini = 0.0<br/>samples = 3<br/>value = [3, 0]<br/>class = No>, fillcolor="#e58139"] ;
387 -> 391 ;
392 [label=<duration &le; 164.5<br/>gini = 0.133<br/>samples = 14<br/>value = [1, 13]<br/>class = Yes>, fillcolor="#48a5e7"] ;
386 -> 392 ;
393 [label=<gini = 0.0<br/>samples = 13<br/>value = [0, 13]<br/>class = Yes>, fillcolor="#399de5"] ;
392 -> 393 ;
394 [label=<gini = 0.0<br/>samples = 1<br/>value = [1, 0]<br/>class = No>, fillcolor="#e58139"] ;
392 -> 394 ;
395 [label=<gini = 0.0<br/>samples = 2<br/>value = [2, 0]<br/>class = No>, fillcolor="#e58139"] ;
385 -> 395 ;
396 [label=<gini = 0.0<br/>samples = 2<br/>value = [2, 0]<br/>class = No>, fillcolor="#e58139"] ;
384 -> 396 ;
397 [label=<gini = 0.0<br/>samples = 4<br/>value = [4, 0]<br/>class = No>, fillcolor="#e58139"] ;
383 -> 397 ;
398 [label=<gini = 0.0<br/>samples = 4<br/>value = [4, 0]<br/>class = No>, fillcolor="#e58139"] ;
382 -> 398 ;
399 [label=<month_nov &le; 0.5<br/>gini = 0.074<br/>samples = 26<br/>value = [25, 1]<br/>class = No>, fillcolor="#e68641"] ;
255 -> 399 ;
400 [label=<gini = 0.0<br/>samples = 22<br/>value = [22, 0]<br/>class = No>, fillcolor="#e58139"] ;
399 -> 400 ;
401 [label=<duration &le; 135.5<br/>gini = 0.375<br/>samples = 4<br/>value = [3, 1]<br/>class = No>, fillcolor="#eeab7b"] ;
399 -> 401 ;
402 [label=<gini = 0.0<br/>samples = 1<br/>value = [0, 1]<br/>class = Yes>, fillcolor="#399de5"] ;
401 -> 402 ;
403 [label=<gini = 0.0<br/>samples = 3<br/>value = [3, 0]<br/>class = No>, fillcolor="#e58139"] ;
401 -> 403 ;
404 [label=<age &le; 81.5<br/>gini = 0.128<br/>samples = 73<br/>value = [68, 5]<br/>class = No>, fillcolor="#e78a48"] ;
254 -> 404 ;
405 [label=<month_jul &le; 0.5<br/>gini = 0.105<br/>samples = 72<br/>value = [68, 4]<br/>class = No>, fillcolor="#e78845"] ;
404 -> 405 ;
406 [label=<duration &le; 163.5<br/>gini = 0.06<br/>samples = 65<br/>value = [63, 2]<br/>class = No>, fillcolor="#e6853f"] ;
405 -> 406 ;
407 [label=<day_of_week_thu &le; 0.5<br/>gini = 0.032<br/>samples = 61<br/>value = [60, 1]<br/>class = No>, fillcolor="#e5833c"] ;
406 -> 407 ;
408 [label=<gini = 0.0<br/>samples = 51<br/>value = [51, 0]<br/>class = No>, fillcolor="#e58139"] ;
407 -> 408 ;
409 [label=<job_technician &le; 0.5<br/>gini = 0.18<br/>samples = 10<br/>value = [9, 1]<br/>class = No>, fillcolor="#e88f4f"] ;
407 -> 409 ;
410 [label=<gini = 0.0<br/>samples = 9<br/>value = [9, 0]<br/>class = No>, fillcolor="#e58139"] ;
409 -> 410 ;
411 [label=<gini = 0.0<br/>samples = 1<br/>value = [0, 1]<br/>class = Yes>, fillcolor="#399de5"] ;
409 -> 411 ;
412 [label=<previous &le; 0.5<br/>gini = 0.375<br/>samples = 4<br/>value = [3, 1]<br/>class = No>, fillcolor="#eeab7b"] ;
406 -> 412 ;
413 [label=<gini = 0.0<br/>samples = 1<br/>value = [0, 1]<br/>class = Yes>, fillcolor="#399de5"] ;
412 -> 413 ;
414 [label=<gini = 0.0<br/>samples = 3<br/>value = [3, 0]<br/>class = No>, fillcolor="#e58139"] ;
412 -> 414 ;
415 [label=<euribor3m &le; 0.797<br/>gini = 0.408<br/>samples = 7<br/>value = [5, 2]<br/>class = No>, fillcolor="#efb388"] ;
405 -> 415 ;
416 [label=<gini = 0.0<br/>samples = 1<br/>value = [0, 1]<br/>class = Yes>, fillcolor="#399de5"] ;
415 -> 416 ;
417 [label=<education_basic.6y &le; 0.5<br/>gini = 0.278<br/>samples = 6<br/>value = [5, 1]<br/>class = No>, fillcolor="#ea9a61"] ;
415 -> 417 ;
418 [label=<gini = 0.0<br/>samples = 5<br/>value = [5, 0]<br/>class = No>, fillcolor="#e58139"] ;
417 -> 418 ;
419 [label=<gini = 0.0<br/>samples = 1<br/>value = [0, 1]<br/>class = Yes>, fillcolor="#399de5"] ;
417 -> 419 ;
420 [label=<gini = 0.0<br/>samples = 1<br/>value = [0, 1]<br/>class = Yes>, fillcolor="#399de5"] ;
404 -> 420 ;
421 [label=<pdays &le; 16.5<br/>gini = 0.478<br/>samples = 2234<br/>value = [882, 1352]<br/>class = Yes>, fillcolor="#baddf6"] ;
1 -> 421 ;
422 [label=<campaign &le; 6.5<br/>gini = 0.305<br/>samples = 665<br/>value = [125, 540]<br/>class = Yes>, fillcolor="#67b4eb"] ;
421 -> 422 ;
423 [label=<euribor3m &le; 0.968<br/>gini = 0.299<br/>samples = 660<br/>value = [121.0, 539.0]<br/>class = Yes>, fillcolor="#65b3eb"] ;
422 -> 423 ;
424 [label=<nr.employed &le; 5020.5<br/>gini = 0.277<br/>samples = 548<br/>value = [91, 457]<br/>class = Yes>, fillcolor="#60b1ea"] ;
423 -> 424 ;
425 [label=<duration &le; 191.5<br/>gini = 0.259<br/>samples = 471<br/>value = [72, 399]<br/>class = Yes>, fillcolor="#5dafea"] ;
424 -> 425 ;
426 [label=<pdays &le; 7.5<br/>gini = 0.375<br/>samples = 60<br/>value = [15, 45]<br/>class = Yes>, fillcolor="#7bbeee"] ;
425 -> 426 ;
427 [label=<contact_telephone &le; 0.5<br/>gini = 0.295<br/>samples = 50<br/>value = [9, 41]<br/>class = Yes>, fillcolor="#64b3eb"] ;
426 -> 427 ;
428 [label=<cons.price.idx &le; 94.207<br/>gini = 0.254<br/>samples = 47<br/>value = [7, 40]<br/>class = Yes>, fillcolor="#5caeea"] ;
427 -> 428 ;
429 [label=<duration &le; 187.5<br/>gini = 0.227<br/>samples = 46<br/>value = [6, 40]<br/>class = Yes>, fillcolor="#57ace9"] ;
428 -> 429 ;
430 [label=<age &le; 21.5<br/>gini = 0.176<br/>samples = 41<br/>value = [4, 37]<br/>class = Yes>, fillcolor="#4ea8e8"] ;
429 -> 430 ;
431 [label=<day_of_week_wed &le; 0.5<br/>gini = 0.5<br/>samples = 2<br/>value = [1, 1]<br/>class = No>, fillcolor="#ffffff"] ;
430 -> 431 ;
432 [label=<gini = 0.0<br/>samples = 1<br/>value = [1, 0]<br/>class = No>, fillcolor="#e58139"] ;
431 -> 432 ;
433 [label=<gini = 0.0<br/>samples = 1<br/>value = [0, 1]<br/>class = Yes>, fillcolor="#399de5"] ;
431 -> 433 ;
434 [label=<month_jun &le; 0.5<br/>gini = 0.142<br/>samples = 39<br/>value = [3, 36]<br/>class = Yes>, fillcolor="#49a5e7"] ;
430 -> 434 ;
435 [label=<month_oct &le; 0.5<br/>gini = 0.102<br/>samples = 37<br/>value = [2, 35]<br/>class = Yes>, fillcolor="#44a3e6"] ;
434 -> 435 ;
436 [label=<day_of_week_mon &le; 0.5<br/>gini = 0.057<br/>samples = 34<br/>value = [1, 33]<br/>class = Yes>, fillcolor="#3fa0e6"] ;
435 -> 436 ;
437 [label=<gini = 0.0<br/>samples = 29<br/>value = [0, 29]<br/>class = Yes>, fillcolor="#399de5"] ;
436 -> 437 ;
438 [label=<pdays &le; 6.5<br/>gini = 0.32<br/>samples = 5<br/>value = [1, 4]<br/>class = Yes>, fillcolor="#6ab6ec"] ;
436 -> 438 ;
439 [label=<gini = 0.0<br/>samples = 4<br/>value = [0, 4]<br/>class = Yes>, fillcolor="#399de5"] ;
438 -> 439 ;
440 [label=<gini = 0.0<br/>samples = 1<br/>value = [1, 0]<br/>class = No>, fillcolor="#e58139"] ;
438 -> 440 ;
441 [label=<euribor3m &le; 0.747<br/>gini = 0.444<br/>samples = 3<br/>value = [1, 2]<br/>class = Yes>, fillcolor="#9ccef2"] ;
435 -> 441 ;
442 [label=<gini = 0.0<br/>samples = 2<br/>value = [0, 2]<br/>class = Yes>, fillcolor="#399de5"] ;
441 -> 442 ;
443 [label=<gini = 0.0<br/>samples = 1<br/>value = [1, 0]<br/>class = No>, fillcolor="#e58139"] ;
441 -> 443 ;
444 [label=<education_professional.course &le; 0.5<br/>gini = 0.5<br/>samples = 2<br/>value = [1, 1]<br/>class = No>, fillcolor="#ffffff"] ;
434 -> 444 ;
445 [label=<gini = 0.0<br/>samples = 1<br/>value = [1, 0]<br/>class = No>, fillcolor="#e58139"] ;
444 -> 445 ;
446 [label=<gini = 0.0<br/>samples = 1<br/>value = [0, 1]<br/>class = Yes>, fillcolor="#399de5"] ;
444 -> 446 ;
447 [label=<duration &le; 188.5<br/>gini = 0.48<br/>samples = 5<br/>value = [2, 3]<br/>class = Yes>, fillcolor="#bddef6"] ;
429 -> 447 ;
448 [label=<gini = 0.0<br/>samples = 2<br/>value = [2, 0]<br/>class = No>, fillcolor="#e58139"] ;
447 -> 448 ;
449 [label=<gini = 0.0<br/>samples = 3<br/>value = [0, 3]<br/>class = Yes>, fillcolor="#399de5"] ;
447 -> 449 ;
450 [label=<gini = 0.0<br/>samples = 1<br/>value = [1, 0]<br/>class = No>, fillcolor="#e58139"] ;
428 -> 450 ;
451 [label=<campaign &le; 2.5<br/>gini = 0.444<br/>samples = 3<br/>value = [2, 1]<br/>class = No>, fillcolor="#f2c09c"] ;
427 -> 451 ;
452 [label=<gini = 0.0<br/>samples = 2<br/>value = [2, 0]<br/>class = No>, fillcolor="#e58139"] ;
451 -> 452 ;
453 [label=<gini = 0.0<br/>samples = 1<br/>value = [0, 1]<br/>class = Yes>, fillcolor="#399de5"] ;
451 -> 453 ;
454 [label=<poutcome_success &le; 0.5<br/>gini = 0.48<br/>samples = 10<br/>value = [6, 4]<br/>class = No>, fillcolor="#f6d5bd"] ;
426 -> 454 ;
455 [label=<duration &le; 181.0<br/>gini = 0.32<br/>samples = 5<br/>value = [1, 4]<br/>class = Yes>, fillcolor="#6ab6ec"] ;
454 -> 455 ;
456 [label=<gini = 0.0<br/>samples = 4<br/>value = [0, 4]<br/>class = Yes>, fillcolor="#399de5"] ;
455 -> 456 ;
457 [label=<gini = 0.0<br/>samples = 1<br/>value = [1, 0]<br/>class = No>, fillcolor="#e58139"] ;
455 -> 457 ;
458 [label=<gini = 0.0<br/>samples = 5<br/>value = [5, 0]<br/>class = No>, fillcolor="#e58139"] ;
454 -> 458 ;
459 [label=<pdays &le; 1.5<br/>gini = 0.239<br/>samples = 411<br/>value = [57, 354]<br/>class = Yes>, fillcolor="#59ade9"] ;
425 -> 459 ;
460 [label=<emp.var.rate &le; -2.6<br/>gini = 0.5<br/>samples = 6<br/>value = [3, 3]<br/>class = No>, fillcolor="#ffffff"] ;
459 -> 460 ;
461 [label=<gini = 0.0<br/>samples = 2<br/>value = [2, 0]<br/>class = No>, fillcolor="#e58139"] ;
460 -> 461 ;
462 [label=<euribor3m &le; 0.685<br/>gini = 0.375<br/>samples = 4<br/>value = [1, 3]<br/>class = Yes>, fillcolor="#7bbeee"] ;
460 -> 462 ;
463 [label=<gini = 0.0<br/>samples = 1<br/>value = [1, 0]<br/>class = No>, fillcolor="#e58139"] ;
462 -> 463 ;
464 [label=<gini = 0.0<br/>samples = 3<br/>value = [0, 3]<br/>class = Yes>, fillcolor="#399de5"] ;
462 -> 464 ;
465 [label=<age &le; 27.5<br/>gini = 0.231<br/>samples = 405<br/>value = [54, 351]<br/>class = Yes>, fillcolor="#57ace9"] ;
459 -> 465 ;
466 [label=<default_unknown &le; 0.5<br/>gini = 0.116<br/>samples = 65<br/>value = [4, 61]<br/>class = Yes>, fillcolor="#46a3e7"] ;
465 -> 466 ;
467 [label=<poutcome_success &le; 0.5<br/>gini = 0.089<br/>samples = 64<br/>value = [3, 61]<br/>class = Yes>, fillcolor="#43a2e6"] ;
466 -> 467 ;
468 [label=<euribor3m &le; 0.672<br/>gini = 0.32<br/>samples = 10<br/>value = [2, 8]<br/>class = Yes>, fillcolor="#6ab6ec"] ;
467 -> 468 ;
469 [label=<gini = 0.0<br/>samples = 1<br/>value = [1, 0]<br/>class = No>, fillcolor="#e58139"] ;
468 -> 469 ;
470 [label=<pdays &le; 7.5<br/>gini = 0.198<br/>samples = 9<br/>value = [1, 8]<br/>class = Yes>, fillcolor="#52a9e8"] ;
468 -> 470 ;
471 [label=<age &le; 19.5<br/>gini = 0.5<br/>samples = 2<br/>value = [1, 1]<br/>class = No>, fillcolor="#ffffff"] ;
470 -> 471 ;
472 [label=<gini = 0.0<br/>samples = 1<br/>value = [0, 1]<br/>class = Yes>, fillcolor="#399de5"] ;
471 -> 472 ;
473 [label=<gini = 0.0<br/>samples = 1<br/>value = [1, 0]<br/>class = No>, fillcolor="#e58139"] ;
471 -> 473 ;
474 [label=<gini = 0.0<br/>samples = 7<br/>value = [0, 7]<br/>class = Yes>, fillcolor="#399de5"] ;
470 -> 474 ;
475 [label=<duration &le; 661.5<br/>gini = 0.036<br/>samples = 54<br/>value = [1, 53]<br/>class = Yes>, fillcolor="#3d9fe5"] ;
467 -> 475 ;
476 [label=<gini = 0.0<br/>samples = 48<br/>value = [0, 48]<br/>class = Yes>, fillcolor="#399de5"] ;
475 -> 476 ;
477 [label=<nr.employed &le; 4977.6<br/>gini = 0.278<br/>samples = 6<br/>value = [1, 5]<br/>class = Yes>, fillcolor="#61b1ea"] ;
475 -> 477 ;
478 [label=<gini = 0.0<br/>samples = 1<br/>value = [1, 0]<br/>class = No>, fillcolor="#e58139"] ;
477 -> 478 ;
479 [label=<gini = 0.0<br/>samples = 5<br/>value = [0, 5]<br/>class = Yes>, fillcolor="#399de5"] ;
477 -> 479 ;
480 [label=<gini = 0.0<br/>samples = 1<br/>value = [1, 0]<br/>class = No>, fillcolor="#e58139"] ;
466 -> 480 ;
481 [label=<campaign &le; 1.5<br/>gini = 0.251<br/>samples = 340<br/>value = [50, 290]<br/>class = Yes>, fillcolor="#5baee9"] ;
465 -> 481 ;
482 [label=<duration &le; 1484.0<br/>gini = 0.185<br/>samples = 184<br/>value = [19, 165]<br/>class = Yes>, fillcolor="#50a8e8"] ;
481 -> 482 ;
483 [label=<month_nov &le; 0.5<br/>gini = 0.177<br/>samples = 183<br/>value = [18, 165]<br/>class = Yes>, fillcolor="#4fa8e8"] ;
482 -> 483 ;
484 [label=<pdays &le; 10.5<br/>gini = 0.153<br/>samples = 168<br/>value = [14, 154]<br/>class = Yes>, fillcolor="#4ba6e7"] ;
483 -> 484 ;
485 [label=<euribor3m &le; 0.877<br/>gini = 0.124<br/>samples = 151<br/>value = [10, 141]<br/>class = Yes>, fillcolor="#47a4e7"] ;
484 -> 485 ;
486 [label=<age &le; 87.0<br/>gini = 0.168<br/>samples = 108<br/>value = [10, 98]<br/>class = Yes>, fillcolor="#4da7e8"] ;
485 -> 486 ;
487 [label=<age &le; 30.5<br/>gini = 0.155<br/>samples = 106<br/>value = [9, 97]<br/>class = Yes>, fillcolor="#4ba6e7"] ;
486 -> 487 ;
488 [label=<duration &le; 593.0<br/>gini = 0.355<br/>samples = 13<br/>value = [3, 10]<br/>class = Yes>, fillcolor="#74baed"] ;
487 -> 488 ;
489 [label=<duration &le; 214.0<br/>gini = 0.18<br/>samples = 10<br/>value = [1, 9]<br/>class = Yes>, fillcolor="#4fa8e8"] ;
488 -> 489 ;
490 [label=<cons.conf.idx &le; -40.05<br/>gini = 0.5<br/>samples = 2<br/>value = [1, 1]<br/>class = No>, fillcolor="#ffffff"] ;
489 -> 490 ;
491 [label=<gini = 0.0<br/>samples = 1<br/>value = [1, 0]<br/>class = No>, fillcolor="#e58139"] ;
490 -> 491 ;
492 [label=<gini = 0.0<br/>samples = 1<br/>value = [0, 1]<br/>class = Yes>, fillcolor="#399de5"] ;
490 -> 492 ;
493 [label=<gini = 0.0<br/>samples = 8<br/>value = [0, 8]<br/>class = Yes>, fillcolor="#399de5"] ;
489 -> 493 ;
494 [label=<age &le; 28.5<br/>gini = 0.444<br/>samples = 3<br/>value = [2, 1]<br/>class = No>, fillcolor="#f2c09c"] ;
488 -> 494 ;
495 [label=<gini = 0.0<br/>samples = 1<br/>value = [0, 1]<br/>class = Yes>, fillcolor="#399de5"] ;
494 -> 495 ;
496 [label=<gini = 0.0<br/>samples = 2<br/>value = [2, 0]<br/>class = No>, fillcolor="#e58139"] ;
494 -> 496 ;
497 [label=<job_housemaid &le; 0.5<br/>gini = 0.121<br/>samples = 93<br/>value = [6, 87]<br/>class = Yes>, fillcolor="#47a4e7"] ;
487 -> 497 ;
498 [label=<pdays &le; 2.5<br/>gini = 0.105<br/>samples = 90<br/>value = [5, 85]<br/>class = Yes>, fillcolor="#45a3e7"] ;
497 -> 498 ;
499 [label=<education_basic.9y &le; 0.5<br/>gini = 0.375<br/>samples = 4<br/>value = [1, 3]<br/>class = Yes>, fillcolor="#7bbeee"] ;
498 -> 499 ;
500 [label=<gini = 0.0<br/>samples = 3<br/>value = [0, 3]<br/>class = Yes>, fillcolor="#399de5"] ;
499 -> 500 ;
501 [label=<gini = 0.0<br/>samples = 1<br/>value = [1, 0]<br/>class = No>, fillcolor="#e58139"] ;
499 -> 501 ;
502 [label=<loan_yes &le; 0.5<br/>gini = 0.089<br/>samples = 86<br/>value = [4, 82]<br/>class = Yes>, fillcolor="#43a2e6"] ;
498 -> 502 ;
503 [label=<euribor3m &le; 0.843<br/>gini = 0.054<br/>samples = 72<br/>value = [2, 70]<br/>class = Yes>, fillcolor="#3fa0e6"] ;
502 -> 503 ;
504 [label=<job_blue-collar &le; 0.5<br/>gini = 0.029<br/>samples = 67<br/>value = [1, 66]<br/>class = Yes>, fillcolor="#3c9ee5"] ;
503 -> 504 ;
505 [label=<gini = 0.0<br/>samples = 59<br/>value = [0, 59]<br/>class = Yes>, fillcolor="#399de5"] ;
504 -> 505 ;
506 [label=<duration &le; 517.5<br/>gini = 0.219<br/>samples = 8<br/>value = [1, 7]<br/>class = Yes>, fillcolor="#55abe9"] ;
504 -> 506 ;
507 [label=<gini = 0.0<br/>samples = 7<br/>value = [0, 7]<br/>class = Yes>, fillcolor="#399de5"] ;
506 -> 507 ;
508 [label=<gini = 0.0<br/>samples = 1<br/>value = [1, 0]<br/>class = No>, fillcolor="#e58139"] ;
506 -> 508 ;
509 [label=<job_retired &le; 0.5<br/>gini = 0.32<br/>samples = 5<br/>value = [1, 4]<br/>class = Yes>, fillcolor="#6ab6ec"] ;
503 -> 509 ;
510 [label=<gini = 0.0<br/>samples = 4<br/>value = [0, 4]<br/>class = Yes>, fillcolor="#399de5"] ;
509 -> 510 ;
511 [label=<gini = 0.0<br/>samples = 1<br/>value = [1, 0]<br/>class = No>, fillcolor="#e58139"] ;
509 -> 511 ;
512 [label=<day_of_week_wed &le; 0.5<br/>gini = 0.245<br/>samples = 14<br/>value = [2, 12]<br/>class = Yes>, fillcolor="#5aade9"] ;
502 -> 512 ;
513 [label=<previous &le; 3.0<br/>gini = 0.142<br/>samples = 13<br/>value = [1, 12]<br/>class = Yes>, fillcolor="#49a5e7"] ;
512 -> 513 ;
514 [label=<gini = 0.0<br/>samples = 11<br/>value = [0, 11]<br/>class = Yes>, fillcolor="#399de5"] ;
513 -> 514 ;
515 [label=<education_unknown &le; 0.5<br/>gini = 0.5<br/>samples = 2<br/>value = [1, 1]<br/>class = No>, fillcolor="#ffffff"] ;
513 -> 515 ;
516 [label=<gini = 0.0<br/>samples = 1<br/>value = [1, 0]<br/>class = No>, fillcolor="#e58139"] ;
515 -> 516 ;
517 [label=<gini = 0.0<br/>samples = 1<br/>value = [0, 1]<br/>class = Yes>, fillcolor="#399de5"] ;
515 -> 517 ;
518 [label=<gini = 0.0<br/>samples = 1<br/>value = [1, 0]<br/>class = No>, fillcolor="#e58139"] ;
512 -> 518 ;
519 [label=<month_mar &le; 0.5<br/>gini = 0.444<br/>samples = 3<br/>value = [1, 2]<br/>class = Yes>, fillcolor="#9ccef2"] ;
497 -> 519 ;
520 [label=<gini = 0.0<br/>samples = 1<br/>value = [1, 0]<br/>class = No>, fillcolor="#e58139"] ;
519 -> 520 ;
521 [label=<gini = 0.0<br/>samples = 2<br/>value = [0, 2]<br/>class = Yes>, fillcolor="#399de5"] ;
519 -> 521 ;
522 [label=<euribor3m &le; 0.707<br/>gini = 0.5<br/>samples = 2<br/>value = [1, 1]<br/>class = No>, fillcolor="#ffffff"] ;
486 -> 522 ;
523 [label=<gini = 0.0<br/>samples = 1<br/>value = [1, 0]<br/>class = No>, fillcolor="#e58139"] ;
522 -> 523 ;
524 [label=<gini = 0.0<br/>samples = 1<br/>value = [0, 1]<br/>class = Yes>, fillcolor="#399de5"] ;
522 -> 524 ;
525 [label=<gini = 0.0<br/>samples = 43<br/>value = [0, 43]<br/>class = Yes>, fillcolor="#399de5"] ;
485 -> 525 ;
526 [label=<day_of_week_mon &le; 0.5<br/>gini = 0.36<br/>samples = 17<br/>value = [4, 13]<br/>class = Yes>, fillcolor="#76bbed"] ;
484 -> 526 ;
527 [label=<nr.employed &le; 5013.1<br/>gini = 0.142<br/>samples = 13<br/>value = [1, 12]<br/>class = Yes>, fillcolor="#49a5e7"] ;
526 -> 527 ;
528 [label=<gini = 0.0<br/>samples = 12<br/>value = [0, 12]<br/>class = Yes>, fillcolor="#399de5"] ;
527 -> 528 ;
529 [label=<gini = 0.0<br/>samples = 1<br/>value = [1, 0]<br/>class = No>, fillcolor="#e58139"] ;
527 -> 529 ;
530 [label=<duration &le; 242.5<br/>gini = 0.375<br/>samples = 4<br/>value = [3, 1]<br/>class = No>, fillcolor="#eeab7b"] ;
526 -> 530 ;
531 [label=<gini = 0.0<br/>samples = 1<br/>value = [0, 1]<br/>class = Yes>, fillcolor="#399de5"] ;
530 -> 531 ;
532 [label=<gini = 0.0<br/>samples = 3<br/>value = [3, 0]<br/>class = No>, fillcolor="#e58139"] ;
530 -> 532 ;
533 [label=<day_of_week_thu &le; 0.5<br/>gini = 0.391<br/>samples = 15<br/>value = [4, 11]<br/>class = Yes>, fillcolor="#81c1ee"] ;
483 -> 533 ;
534 [label=<duration &le; 802.5<br/>gini = 0.26<br/>samples = 13<br/>value = [2, 11]<br/>class = Yes>, fillcolor="#5dafea"] ;
533 -> 534 ;
535 [label=<day_of_week_wed &le; 0.5<br/>gini = 0.153<br/>samples = 12<br/>value = [1, 11]<br/>class = Yes>, fillcolor="#4ba6e7"] ;
534 -> 535 ;
536 [label=<gini = 0.0<br/>samples = 8<br/>value = [0, 8]<br/>class = Yes>, fillcolor="#399de5"] ;
535 -> 536 ;
537 [label=<education_university.degree &le; 0.5<br/>gini = 0.375<br/>samples = 4<br/>value = [1, 3]<br/>class = Yes>, fillcolor="#7bbeee"] ;
535 -> 537 ;
538 [label=<gini = 0.0<br/>samples = 1<br/>value = [1, 0]<br/>class = No>, fillcolor="#e58139"] ;
537 -> 538 ;
539 [label=<gini = 0.0<br/>samples = 3<br/>value = [0, 3]<br/>class = Yes>, fillcolor="#399de5"] ;
537 -> 539 ;
540 [label=<gini = 0.0<br/>samples = 1<br/>value = [1, 0]<br/>class = No>, fillcolor="#e58139"] ;
534 -> 540 ;
541 [label=<gini = 0.0<br/>samples = 2<br/>value = [2, 0]<br/>class = No>, fillcolor="#e58139"] ;
533 -> 541 ;
542 [label=<gini = 0.0<br/>samples = 1<br/>value = [1, 0]<br/>class = No>, fillcolor="#e58139"] ;
482 -> 542 ;
543 [label=<age &le; 38.5<br/>gini = 0.318<br/>samples = 156<br/>value = [31.0, 125.0]<br/>class = Yes>, fillcolor="#6ab5eb"] ;
481 -> 543 ;
544 [label=<euribor3m &le; 0.899<br/>gini = 0.407<br/>samples = 74<br/>value = [21, 53]<br/>class = Yes>, fillcolor="#87c4ef"] ;
543 -> 544 ;
545 [label=<pdays &le; 14.0<br/>gini = 0.389<br/>samples = 72<br/>value = [19, 53]<br/>class = Yes>, fillcolor="#80c0ee"] ;
544 -> 545 ;
546 [label=<education_basic.6y &le; 0.5<br/>gini = 0.368<br/>samples = 70<br/>value = [17, 53]<br/>class = Yes>, fillcolor="#79bced"] ;
545 -> 546 ;
547 [label=<day_of_week_tue &le; 0.5<br/>gini = 0.356<br/>samples = 69<br/>value = [16, 53]<br/>class = Yes>, fillcolor="#75bbed"] ;
546 -> 547 ;
548 [label=<day_of_week_mon &le; 0.5<br/>gini = 0.306<br/>samples = 53<br/>value = [10, 43]<br/>class = Yes>, fillcolor="#67b4eb"] ;
547 -> 548 ;
549 [label=<contact_telephone &le; 0.5<br/>gini = 0.224<br/>samples = 39<br/>value = [5, 34]<br/>class = Yes>, fillcolor="#56abe9"] ;
548 -> 549 ;
550 [label=<duration &le; 214.5<br/>gini = 0.161<br/>samples = 34<br/>value = [3, 31]<br/>class = Yes>, fillcolor="#4ca6e8"] ;
549 -> 550 ;
551 [label=<emp.var.rate &le; -1.75<br/>gini = 0.5<br/>samples = 2<br/>value = [1, 1]<br/>class = No>, fillcolor="#ffffff"] ;
550 -> 551 ;
552 [label=<gini = 0.0<br/>samples = 1<br/>value = [1, 0]<br/>class = No>, fillcolor="#e58139"] ;
551 -> 552 ;
553 [label=<gini = 0.0<br/>samples = 1<br/>value = [0, 1]<br/>class = Yes>, fillcolor="#399de5"] ;
551 -> 553 ;
554 [label=<month_jul &le; 0.5<br/>gini = 0.117<br/>samples = 32<br/>value = [2, 30]<br/>class = Yes>, fillcolor="#46a4e7"] ;
550 -> 554 ;
555 [label=<gini = 0.0<br/>samples = 25<br/>value = [0, 25]<br/>class = Yes>, fillcolor="#399de5"] ;
554 -> 555 ;
556 [label=<duration &le; 259.0<br/>gini = 0.408<br/>samples = 7<br/>value = [2, 5]<br/>class = Yes>, fillcolor="#88c4ef"] ;
554 -> 556 ;
557 [label=<gini = 0.0<br/>samples = 1<br/>value = [1, 0]<br/>class = No>, fillcolor="#e58139"] ;
556 -> 557 ;
558 [label=<previous &le; 2.5<br/>gini = 0.278<br/>samples = 6<br/>value = [1, 5]<br/>class = Yes>, fillcolor="#61b1ea"] ;
556 -> 558 ;
559 [label=<gini = 0.0<br/>samples = 5<br/>value = [0, 5]<br/>class = Yes>, fillcolor="#399de5"] ;
558 -> 559 ;
560 [label=<gini = 0.0<br/>samples = 1<br/>value = [1, 0]<br/>class = No>, fillcolor="#e58139"] ;
558 -> 560 ;
561 [label=<campaign &le; 2.5<br/>gini = 0.48<br/>samples = 5<br/>value = [2, 3]<br/>class = Yes>, fillcolor="#bddef6"] ;
549 -> 561 ;
562 [label=<month_nov &le; 0.5<br/>gini = 0.444<br/>samples = 3<br/>value = [2, 1]<br/>class = No>, fillcolor="#f2c09c"] ;
561 -> 562 ;
563 [label=<gini = 0.0<br/>samples = 2<br/>value = [2, 0]<br/>class = No>, fillcolor="#e58139"] ;
562 -> 563 ;
564 [label=<gini = 0.0<br/>samples = 1<br/>value = [0, 1]<br/>class = Yes>, fillcolor="#399de5"] ;
562 -> 564 ;
565 [label=<gini = 0.0<br/>samples = 2<br/>value = [0, 2]<br/>class = Yes>, fillcolor="#399de5"] ;
561 -> 565 ;
566 [label=<age &le; 29.5<br/>gini = 0.459<br/>samples = 14<br/>value = [5, 9]<br/>class = Yes>, fillcolor="#a7d3f3"] ;
548 -> 566 ;
567 [label=<gini = 0.0<br/>samples = 2<br/>value = [2, 0]<br/>class = No>, fillcolor="#e58139"] ;
566 -> 567 ;
568 [label=<cons.conf.idx &le; -39.9<br/>gini = 0.375<br/>samples = 12<br/>value = [3, 9]<br/>class = Yes>, fillcolor="#7bbeee"] ;
566 -> 568 ;
569 [label=<previous &le; 3.0<br/>gini = 0.444<br/>samples = 3<br/>value = [2, 1]<br/>class = No>, fillcolor="#f2c09c"] ;
568 -> 569 ;
570 [label=<gini = 0.0<br/>samples = 2<br/>value = [2, 0]<br/>class = No>, fillcolor="#e58139"] ;
569 -> 570 ;
571 [label=<gini = 0.0<br/>samples = 1<br/>value = [0, 1]<br/>class = Yes>, fillcolor="#399de5"] ;
569 -> 571 ;
572 [label=<month_nov &le; 0.5<br/>gini = 0.198<br/>samples = 9<br/>value = [1, 8]<br/>class = Yes>, fillcolor="#52a9e8"] ;
568 -> 572 ;
573 [label=<gini = 0.0<br/>samples = 8<br/>value = [0, 8]<br/>class = Yes>, fillcolor="#399de5"] ;
572 -> 573 ;
574 [label=<gini = 0.0<br/>samples = 1<br/>value = [1, 0]<br/>class = No>, fillcolor="#e58139"] ;
572 -> 574 ;
575 [label=<euribor3m &le; 0.715<br/>gini = 0.469<br/>samples = 16<br/>value = [6, 10]<br/>class = Yes>, fillcolor="#b0d8f5"] ;
547 -> 575 ;
576 [label=<gini = 0.0<br/>samples = 6<br/>value = [0, 6]<br/>class = Yes>, fillcolor="#399de5"] ;
575 -> 576 ;
577 [label=<education_high.school &le; 0.5<br/>gini = 0.48<br/>samples = 10<br/>value = [6, 4]<br/>class = No>, fillcolor="#f6d5bd"] ;
575 -> 577 ;
578 [label=<loan_yes &le; 0.5<br/>gini = 0.444<br/>samples = 6<br/>value = [2, 4]<br/>class = Yes>, fillcolor="#9ccef2"] ;
577 -> 578 ;
579 [label=<pdays &le; 3.5<br/>gini = 0.32<br/>samples = 5<br/>value = [1, 4]<br/>class = Yes>, fillcolor="#6ab6ec"] ;
578 -> 579 ;
580 [label=<education_university.degree &le; 0.5<br/>gini = 0.5<br/>samples = 2<br/>value = [1, 1]<br/>class = No>, fillcolor="#ffffff"] ;
579 -> 580 ;
581 [label=<gini = 0.0<br/>samples = 1<br/>value = [1, 0]<br/>class = No>, fillcolor="#e58139"] ;
580 -> 581 ;
582 [label=<gini = 0.0<br/>samples = 1<br/>value = [0, 1]<br/>class = Yes>, fillcolor="#399de5"] ;
580 -> 582 ;
583 [label=<gini = 0.0<br/>samples = 3<br/>value = [0, 3]<br/>class = Yes>, fillcolor="#399de5"] ;
579 -> 583 ;
584 [label=<gini = 0.0<br/>samples = 1<br/>value = [1, 0]<br/>class = No>, fillcolor="#e58139"] ;
578 -> 584 ;
585 [label=<gini = 0.0<br/>samples = 4<br/>value = [4, 0]<br/>class = No>, fillcolor="#e58139"] ;
577 -> 585 ;
586 [label=<gini = 0.0<br/>samples = 1<br/>value = [1, 0]<br/>class = No>, fillcolor="#e58139"] ;
546 -> 586 ;
587 [label=<gini = 0.0<br/>samples = 2<br/>value = [2, 0]<br/>class = No>, fillcolor="#e58139"] ;
545 -> 587 ;
588 [label=<gini = 0.0<br/>samples = 2<br/>value = [2, 0]<br/>class = No>, fillcolor="#e58139"] ;
544 -> 588 ;
589 [label=<previous &le; 3.5<br/>gini = 0.214<br/>samples = 82<br/>value = [10, 72]<br/>class = Yes>, fillcolor="#54abe9"] ;
543 -> 589 ;
590 [label=<job_technician &le; 0.5<br/>gini = 0.145<br/>samples = 76<br/>value = [6, 70]<br/>class = Yes>, fillcolor="#4aa5e7"] ;
589 -> 590 ;
591 [label=<default_unknown &le; 0.5<br/>gini = 0.087<br/>samples = 66<br/>value = [3, 63]<br/>class = Yes>, fillcolor="#42a2e6"] ;
590 -> 591 ;
592 [label=<duration &le; 258.5<br/>gini = 0.061<br/>samples = 64<br/>value = [2, 62]<br/>class = Yes>, fillcolor="#3fa0e6"] ;
591 -> 592 ;
593 [label=<age &le; 77.5<br/>gini = 0.231<br/>samples = 15<br/>value = [2, 13]<br/>class = Yes>, fillcolor="#57ace9"] ;
592 -> 593 ;
594 [label=<day_of_week_mon &le; 0.5<br/>gini = 0.133<br/>samples = 14<br/>value = [1, 13]<br/>class = Yes>, fillcolor="#48a5e7"] ;
593 -> 594 ;
595 [label=<gini = 0.0<br/>samples = 13<br/>value = [0, 13]<br/>class = Yes>, fillcolor="#399de5"] ;
594 -> 595 ;
596 [label=<gini = 0.0<br/>samples = 1<br/>value = [1, 0]<br/>class = No>, fillcolor="#e58139"] ;
594 -> 596 ;
597 [label=<gini = 0.0<br/>samples = 1<br/>value = [1, 0]<br/>class = No>, fillcolor="#e58139"] ;
593 -> 597 ;
598 [label=<gini = 0.0<br/>samples = 49<br/>value = [0, 49]<br/>class = Yes>, fillcolor="#399de5"] ;
592 -> 598 ;
599 [label=<day_of_week_wed &le; 0.5<br/>gini = 0.5<br/>samples = 2<br/>value = [1, 1]<br/>class = No>, fillcolor="#ffffff"] ;
591 -> 599 ;
600 [label=<gini = 0.0<br/>samples = 1<br/>value = [1, 0]<br/>class = No>, fillcolor="#e58139"] ;
599 -> 600 ;
601 [label=<gini = 0.0<br/>samples = 1<br/>value = [0, 1]<br/>class = Yes>, fillcolor="#399de5"] ;
599 -> 601 ;
602 [label=<cons.conf.idx &le; -36.55<br/>gini = 0.42<br/>samples = 10<br/>value = [3, 7]<br/>class = Yes>, fillcolor="#8ec7f0"] ;
590 -> 602 ;
603 [label=<gini = 0.0<br/>samples = 5<br/>value = [0, 5]<br/>class = Yes>, fillcolor="#399de5"] ;
602 -> 603 ;
604 [label=<month_oct &le; 0.5<br/>gini = 0.48<br/>samples = 5<br/>value = [3, 2]<br/>class = No>, fillcolor="#f6d5bd"] ;
602 -> 604 ;
605 [label=<gini = 0.0<br/>samples = 2<br/>value = [2, 0]<br/>class = No>, fillcolor="#e58139"] ;
604 -> 605 ;
606 [label=<duration &le; 731.0<br/>gini = 0.444<br/>samples = 3<br/>value = [1, 2]<br/>class = Yes>, fillcolor="#9ccef2"] ;
604 -> 606 ;
607 [label=<gini = 0.0<br/>samples = 2<br/>value = [0, 2]<br/>class = Yes>, fillcolor="#399de5"] ;
606 -> 607 ;
608 [label=<gini = 0.0<br/>samples = 1<br/>value = [1, 0]<br/>class = No>, fillcolor="#e58139"] ;
606 -> 608 ;
609 [label=<euribor3m &le; 0.783<br/>gini = 0.444<br/>samples = 6<br/>value = [4, 2]<br/>class = No>, fillcolor="#f2c09c"] ;
589 -> 609 ;
610 [label=<education_high.school &le; 0.5<br/>gini = 0.444<br/>samples = 3<br/>value = [1, 2]<br/>class = Yes>, fillcolor="#9ccef2"] ;
609 -> 610 ;
611 [label=<gini = 0.0<br/>samples = 2<br/>value = [0, 2]<br/>class = Yes>, fillcolor="#399de5"] ;
610 -> 611 ;
612 [label=<gini = 0.0<br/>samples = 1<br/>value = [1, 0]<br/>class = No>, fillcolor="#e58139"] ;
610 -> 612 ;
613 [label=<gini = 0.0<br/>samples = 3<br/>value = [3, 0]<br/>class = No>, fillcolor="#e58139"] ;
609 -> 613 ;
614 [label=<campaign &le; 3.5<br/>gini = 0.372<br/>samples = 77<br/>value = [19, 58]<br/>class = Yes>, fillcolor="#7abdee"] ;
424 -> 614 ;
615 [label=<day_of_week_tue &le; 0.5<br/>gini = 0.342<br/>samples = 73<br/>value = [16, 57]<br/>class = Yes>, fillcolor="#71b9ec"] ;
614 -> 615 ;
616 [label=<housing_yes &le; 0.5<br/>gini = 0.391<br/>samples = 60<br/>value = [16, 44]<br/>class = Yes>, fillcolor="#81c1ee"] ;
615 -> 616 ;
617 [label=<age &le; 26.0<br/>gini = 0.471<br/>samples = 29<br/>value = [11, 18]<br/>class = Yes>, fillcolor="#b2d9f5"] ;
616 -> 617 ;
618 [label=<gini = 0.0<br/>samples = 2<br/>value = [2, 0]<br/>class = No>, fillcolor="#e58139"] ;
617 -> 618 ;
619 [label=<euribor3m &le; 0.884<br/>gini = 0.444<br/>samples = 27<br/>value = [9, 18]<br/>class = Yes>, fillcolor="#9ccef2"] ;
617 -> 619 ;
620 [label=<job_management &le; 0.5<br/>gini = 0.403<br/>samples = 25<br/>value = [7.0, 18.0]<br/>class = Yes>, fillcolor="#86c3ef"] ;
619 -> 620 ;
621 [label=<job_housemaid &le; 0.5<br/>gini = 0.375<br/>samples = 24<br/>value = [6, 18]<br/>class = Yes>, fillcolor="#7bbeee"] ;
620 -> 621 ;
622 [label=<campaign &le; 1.5<br/>gini = 0.308<br/>samples = 21<br/>value = [4, 17]<br/>class = Yes>, fillcolor="#68b4eb"] ;
621 -> 622 ;
623 [label=<education_basic.9y &le; 0.5<br/>gini = 0.444<br/>samples = 12<br/>value = [4, 8]<br/>class = Yes>, fillcolor="#9ccef2"] ;
622 -> 623 ;
624 [label=<day_of_week_wed &le; 0.5<br/>gini = 0.397<br/>samples = 11<br/>value = [3, 8]<br/>class = Yes>, fillcolor="#83c2ef"] ;
623 -> 624 ;
625 [label=<euribor3m &le; 0.772<br/>gini = 0.245<br/>samples = 7<br/>value = [1, 6]<br/>class = Yes>, fillcolor="#5aade9"] ;
624 -> 625 ;
626 [label=<gini = 0.0<br/>samples = 1<br/>value = [1, 0]<br/>class = No>, fillcolor="#e58139"] ;
625 -> 626 ;
627 [label=<gini = 0.0<br/>samples = 6<br/>value = [0, 6]<br/>class = Yes>, fillcolor="#399de5"] ;
625 -> 627 ;
628 [label=<cons.conf.idx &le; -32.2<br/>gini = 0.5<br/>samples = 4<br/>value = [2, 2]<br/>class = No>, fillcolor="#ffffff"] ;
624 -> 628 ;
629 [label=<gini = 0.0<br/>samples = 2<br/>value = [0, 2]<br/>class = Yes>, fillcolor="#399de5"] ;
628 -> 629 ;
630 [label=<gini = 0.0<br/>samples = 2<br/>value = [2, 0]<br/>class = No>, fillcolor="#e58139"] ;
628 -> 630 ;
631 [label=<gini = 0.0<br/>samples = 1<br/>value = [1, 0]<br/>class = No>, fillcolor="#e58139"] ;
623 -> 631 ;
632 [label=<gini = 0.0<br/>samples = 9<br/>value = [0, 9]<br/>class = Yes>, fillcolor="#399de5"] ;
622 -> 632 ;
633 [label=<duration &le; 453.5<br/>gini = 0.444<br/>samples = 3<br/>value = [2, 1]<br/>class = No>, fillcolor="#f2c09c"] ;
621 -> 633 ;
634 [label=<gini = 0.0<br/>samples = 1<br/>value = [0, 1]<br/>class = Yes>, fillcolor="#399de5"] ;
633 -> 634 ;
635 [label=<gini = 0.0<br/>samples = 2<br/>value = [2, 0]<br/>class = No>, fillcolor="#e58139"] ;
633 -> 635 ;
636 [label=<gini = 0.0<br/>samples = 1<br/>value = [1, 0]<br/>class = No>, fillcolor="#e58139"] ;
620 -> 636 ;
637 [label=<gini = 0.0<br/>samples = 2<br/>value = [2, 0]<br/>class = No>, fillcolor="#e58139"] ;
619 -> 637 ;
638 [label=<previous &le; 3.0<br/>gini = 0.271<br/>samples = 31<br/>value = [5, 26]<br/>class = Yes>, fillcolor="#5fb0ea"] ;
616 -> 638 ;
639 [label=<duration &le; 626.0<br/>gini = 0.231<br/>samples = 30<br/>value = [4, 26]<br/>class = Yes>, fillcolor="#57ace9"] ;
638 -> 639 ;
640 [label=<euribor3m &le; 0.882<br/>gini = 0.083<br/>samples = 23<br/>value = [1, 22]<br/>class = Yes>, fillcolor="#42a1e6"] ;
639 -> 640 ;
641 [label=<gini = 0.0<br/>samples = 20<br/>value = [0, 20]<br/>class = Yes>, fillcolor="#399de5"] ;
640 -> 641 ;
642 [label=<age &le; 45.5<br/>gini = 0.444<br/>samples = 3<br/>value = [1, 2]<br/>class = Yes>, fillcolor="#9ccef2"] ;
640 -> 642 ;
643 [label=<gini = 0.0<br/>samples = 1<br/>value = [1, 0]<br/>class = No>, fillcolor="#e58139"] ;
642 -> 643 ;
644 [label=<gini = 0.0<br/>samples = 2<br/>value = [0, 2]<br/>class = Yes>, fillcolor="#399de5"] ;
642 -> 644 ;
645 [label=<campaign &le; 2.5<br/>gini = 0.49<br/>samples = 7<br/>value = [3, 4]<br/>class = Yes>, fillcolor="#cee6f8"] ;
639 -> 645 ;
646 [label=<default_unknown &le; 0.5<br/>gini = 0.32<br/>samples = 5<br/>value = [1, 4]<br/>class = Yes>, fillcolor="#6ab6ec"] ;
645 -> 646 ;
647 [label=<gini = 0.0<br/>samples = 4<br/>value = [0, 4]<br/>class = Yes>, fillcolor="#399de5"] ;
646 -> 647 ;
648 [label=<gini = 0.0<br/>samples = 1<br/>value = [1, 0]<br/>class = No>, fillcolor="#e58139"] ;
646 -> 648 ;
649 [label=<gini = 0.0<br/>samples = 2<br/>value = [2, 0]<br/>class = No>, fillcolor="#e58139"] ;
645 -> 649 ;
650 [label=<gini = 0.0<br/>samples = 1<br/>value = [1, 0]<br/>class = No>, fillcolor="#e58139"] ;
638 -> 650 ;
651 [label=<gini = 0.0<br/>samples = 13<br/>value = [0, 13]<br/>class = Yes>, fillcolor="#399de5"] ;
615 -> 651 ;
652 [label=<previous &le; 1.5<br/>gini = 0.375<br/>samples = 4<br/>value = [3, 1]<br/>class = No>, fillcolor="#eeab7b"] ;
614 -> 652 ;
653 [label=<gini = 0.0<br/>samples = 1<br/>value = [0, 1]<br/>class = Yes>, fillcolor="#399de5"] ;
652 -> 653 ;
654 [label=<gini = 0.0<br/>samples = 3<br/>value = [3, 0]<br/>class = No>, fillcolor="#e58139"] ;
652 -> 654 ;
655 [label=<campaign &le; 4.5<br/>gini = 0.392<br/>samples = 112<br/>value = [30, 82]<br/>class = Yes>, fillcolor="#81c1ef"] ;
423 -> 655 ;
656 [label=<poutcome_success &le; 0.5<br/>gini = 0.38<br/>samples = 110<br/>value = [28.0, 82.0]<br/>class = Yes>, fillcolor="#7dbeee"] ;
655 -> 656 ;
657 [label=<duration &le; 435.5<br/>gini = 0.444<br/>samples = 6<br/>value = [4, 2]<br/>class = No>, fillcolor="#f2c09c"] ;
656 -> 657 ;
658 [label=<gini = 0.0<br/>samples = 4<br/>value = [4, 0]<br/>class = No>, fillcolor="#e58139"] ;
657 -> 658 ;
659 [label=<gini = 0.0<br/>samples = 2<br/>value = [0, 2]<br/>class = Yes>, fillcolor="#399de5"] ;
657 -> 659 ;
660 [label=<age &le; 25.5<br/>gini = 0.355<br/>samples = 104<br/>value = [24, 80]<br/>class = Yes>, fillcolor="#74baed"] ;
656 -> 660 ;
661 [label=<euribor3m &le; 1.261<br/>gini = 0.49<br/>samples = 14<br/>value = [6, 8]<br/>class = Yes>, fillcolor="#cee6f8"] ;
660 -> 661 ;
662 [label=<euribor3m &le; 0.979<br/>gini = 0.32<br/>samples = 10<br/>value = [2, 8]<br/>class = Yes>, fillcolor="#6ab6ec"] ;
661 -> 662 ;
663 [label=<gini = 0.0<br/>samples = 1<br/>value = [1, 0]<br/>class = No>, fillcolor="#e58139"] ;
662 -> 663 ;
664 [label=<day_of_week_wed &le; 0.5<br/>gini = 0.198<br/>samples = 9<br/>value = [1, 8]<br/>class = Yes>, fillcolor="#52a9e8"] ;
662 -> 664 ;
665 [label=<gini = 0.0<br/>samples = 8<br/>value = [0, 8]<br/>class = Yes>, fillcolor="#399de5"] ;
664 -> 665 ;
666 [label=<gini = 0.0<br/>samples = 1<br/>value = [1, 0]<br/>class = No>, fillcolor="#e58139"] ;
664 -> 666 ;
667 [label=<gini = 0.0<br/>samples = 4<br/>value = [4, 0]<br/>class = No>, fillcolor="#e58139"] ;
661 -> 667 ;
668 [label=<duration &le; 357.0<br/>gini = 0.32<br/>samples = 90<br/>value = [18, 72]<br/>class = Yes>, fillcolor="#6ab6ec"] ;
660 -> 668 ;
669 [label=<duration &le; 345.5<br/>gini = 0.395<br/>samples = 59<br/>value = [16, 43]<br/>class = Yes>, fillcolor="#83c1ef"] ;
668 -> 669 ;
670 [label=<age &le; 29.5<br/>gini = 0.371<br/>samples = 57<br/>value = [14, 43]<br/>class = Yes>, fillcolor="#79bded"] ;
669 -> 670 ;
671 [label=<campaign &le; 1.5<br/>gini = 0.5<br/>samples = 8<br/>value = [4, 4]<br/>class = No>, fillcolor="#ffffff"] ;
670 -> 671 ;
672 [label=<previous &le; 2.5<br/>gini = 0.444<br/>samples = 6<br/>value = [4, 2]<br/>class = No>, fillcolor="#f2c09c"] ;
671 -> 672 ;
673 [label=<gini = 0.0<br/>samples = 4<br/>value = [4, 0]<br/>class = No>, fillcolor="#e58139"] ;
672 -> 673 ;
674 [label=<gini = 0.0<br/>samples = 2<br/>value = [0, 2]<br/>class = Yes>, fillcolor="#399de5"] ;
672 -> 674 ;
675 [label=<gini = 0.0<br/>samples = 2<br/>value = [0, 2]<br/>class = Yes>, fillcolor="#399de5"] ;
671 -> 675 ;
676 [label=<age &le; 54.5<br/>gini = 0.325<br/>samples = 49<br/>value = [10, 39]<br/>class = Yes>, fillcolor="#6cb6ec"] ;
670 -> 676 ;
677 [label=<previous &le; 5.0<br/>gini = 0.234<br/>samples = 37<br/>value = [5, 32]<br/>class = Yes>, fillcolor="#58ace9"] ;
676 -> 677 ;
678 [label=<duration &le; 328.0<br/>gini = 0.157<br/>samples = 35<br/>value = [3, 32]<br/>class = Yes>, fillcolor="#4ca6e7"] ;
677 -> 678 ;
679 [label=<default_unknown &le; 0.5<br/>gini = 0.059<br/>samples = 33<br/>value = [1, 32]<br/>class = Yes>, fillcolor="#3fa0e6"] ;
678 -> 679 ;
680 [label=<gini = 0.0<br/>samples = 31<br/>value = [0, 31]<br/>class = Yes>, fillcolor="#399de5"] ;
679 -> 680 ;
681 [label=<previous &le; 2.0<br/>gini = 0.5<br/>samples = 2<br/>value = [1, 1]<br/>class = No>, fillcolor="#ffffff"] ;
679 -> 681 ;
682 [label=<gini = 0.0<br/>samples = 1<br/>value = [1, 0]<br/>class = No>, fillcolor="#e58139"] ;
681 -> 682 ;
683 [label=<gini = 0.0<br/>samples = 1<br/>value = [0, 1]<br/>class = Yes>, fillcolor="#399de5"] ;
681 -> 683 ;
684 [label=<gini = 0.0<br/>samples = 2<br/>value = [2, 0]<br/>class = No>, fillcolor="#e58139"] ;
678 -> 684 ;
685 [label=<gini = 0.0<br/>samples = 2<br/>value = [2, 0]<br/>class = No>, fillcolor="#e58139"] ;
677 -> 685 ;
686 [label=<marital_married &le; 0.5<br/>gini = 0.486<br/>samples = 12<br/>value = [5, 7]<br/>class = Yes>, fillcolor="#c6e3f8"] ;
676 -> 686 ;
687 [label=<gini = 0.0<br/>samples = 2<br/>value = [2, 0]<br/>class = No>, fillcolor="#e58139"] ;
686 -> 687 ;
688 [label=<euribor3m &le; 1.027<br/>gini = 0.42<br/>samples = 10<br/>value = [3, 7]<br/>class = Yes>, fillcolor="#8ec7f0"] ;
686 -> 688 ;
689 [label=<age &le; 64.0<br/>gini = 0.48<br/>samples = 5<br/>value = [3, 2]<br/>class = No>, fillcolor="#f6d5bd"] ;
688 -> 689 ;
690 [label=<gini = 0.0<br/>samples = 3<br/>value = [3, 0]<br/>class = No>, fillcolor="#e58139"] ;
689 -> 690 ;
691 [label=<gini = 0.0<br/>samples = 2<br/>value = [0, 2]<br/>class = Yes>, fillcolor="#399de5"] ;
689 -> 691 ;
692 [label=<gini = 0.0<br/>samples = 5<br/>value = [0, 5]<br/>class = Yes>, fillcolor="#399de5"] ;
688 -> 692 ;
693 [label=<gini = 0.0<br/>samples = 2<br/>value = [2, 0]<br/>class = No>, fillcolor="#e58139"] ;
669 -> 693 ;
694 [label=<cons.price.idx &le; 92.716<br/>gini = 0.121<br/>samples = 31<br/>value = [2, 29]<br/>class = Yes>, fillcolor="#47a4e7"] ;
668 -> 694 ;
695 [label=<day_of_week_wed &le; 0.5<br/>gini = 0.444<br/>samples = 6<br/>value = [2, 4]<br/>class = Yes>, fillcolor="#9ccef2"] ;
694 -> 695 ;
696 [label=<gini = 0.0<br/>samples = 4<br/>value = [0, 4]<br/>class = Yes>, fillcolor="#399de5"] ;
695 -> 696 ;
697 [label=<gini = 0.0<br/>samples = 2<br/>value = [2, 0]<br/>class = No>, fillcolor="#e58139"] ;
695 -> 697 ;
698 [label=<gini = 0.0<br/>samples = 25<br/>value = [0, 25]<br/>class = Yes>, fillcolor="#399de5"] ;
694 -> 698 ;
699 [label=<gini = 0.0<br/>samples = 2<br/>value = [2, 0]<br/>class = No>, fillcolor="#e58139"] ;
655 -> 699 ;
700 [label=<month_dec &le; 0.5<br/>gini = 0.32<br/>samples = 5<br/>value = [4, 1]<br/>class = No>, fillcolor="#eca06a"] ;
422 -> 700 ;
701 [label=<gini = 0.0<br/>samples = 4<br/>value = [4, 0]<br/>class = No>, fillcolor="#e58139"] ;
700 -> 701 ;
702 [label=<gini = 0.0<br/>samples = 1<br/>value = [0, 1]<br/>class = Yes>, fillcolor="#399de5"] ;
700 -> 702 ;
703 [label=<duration &le; 250.5<br/>gini = 0.499<br/>samples = 1569<br/>value = [757.0, 812.0]<br/>class = Yes>, fillcolor="#f2f8fd"] ;
421 -> 703 ;
704 [label=<duration &le; 193.5<br/>gini = 0.464<br/>samples = 527<br/>value = [334, 193]<br/>class = No>, fillcolor="#f4caab"] ;
703 -> 704 ;
705 [label=<contact_telephone &le; 0.5<br/>gini = 0.396<br/>samples = 184<br/>value = [134, 50]<br/>class = No>, fillcolor="#efb083"] ;
704 -> 705 ;
706 [label=<day_of_week_wed &le; 0.5<br/>gini = 0.42<br/>samples = 163<br/>value = [114, 49]<br/>class = No>, fillcolor="#f0b78e"] ;
705 -> 706 ;
707 [label=<cons.price.idx &le; 94.408<br/>gini = 0.446<br/>samples = 131<br/>value = [87, 44]<br/>class = No>, fillcolor="#f2c19d"] ;
706 -> 707 ;
708 [label=<euribor3m &le; 0.86<br/>gini = 0.464<br/>samples = 120<br/>value = [76, 44]<br/>class = No>, fillcolor="#f4caac"] ;
707 -> 708 ;
709 [label=<day_of_week_tue &le; 0.5<br/>gini = 0.414<br/>samples = 65<br/>value = [46, 19]<br/>class = No>, fillcolor="#f0b58b"] ;
708 -> 709 ;
710 [label=<age &le; 70.0<br/>gini = 0.325<br/>samples = 44<br/>value = [35, 9]<br/>class = No>, fillcolor="#eca16c"] ;
709 -> 710 ;
711 [label=<euribor3m &le; 0.85<br/>gini = 0.234<br/>samples = 37<br/>value = [32, 5]<br/>class = No>, fillcolor="#e99558"] ;
710 -> 711 ;
712 [label=<month_may &le; 0.5<br/>gini = 0.198<br/>samples = 36<br/>value = [32, 4]<br/>class = No>, fillcolor="#e89152"] ;
711 -> 712 ;
713 [label=<marital_married &le; 0.5<br/>gini = 0.161<br/>samples = 34<br/>value = [31, 3]<br/>class = No>, fillcolor="#e88d4c"] ;
712 -> 713 ;
714 [label=<age &le; 33.5<br/>gini = 0.305<br/>samples = 16<br/>value = [13, 3]<br/>class = No>, fillcolor="#eb9e67"] ;
713 -> 714 ;
715 [label=<month_jun &le; 0.5<br/>gini = 0.142<br/>samples = 13<br/>value = [12, 1]<br/>class = No>, fillcolor="#e78c49"] ;
714 -> 715 ;
716 [label=<gini = 0.0<br/>samples = 12<br/>value = [12, 0]<br/>class = No>, fillcolor="#e58139"] ;
715 -> 716 ;
717 [label=<gini = 0.0<br/>samples = 1<br/>value = [0, 1]<br/>class = Yes>, fillcolor="#399de5"] ;
715 -> 717 ;
718 [label=<euribor3m &le; 0.653<br/>gini = 0.444<br/>samples = 3<br/>value = [1, 2]<br/>class = Yes>, fillcolor="#9ccef2"] ;
714 -> 718 ;
719 [label=<gini = 0.0<br/>samples = 1<br/>value = [1, 0]<br/>class = No>, fillcolor="#e58139"] ;
718 -> 719 ;
720 [label=<gini = 0.0<br/>samples = 2<br/>value = [0, 2]<br/>class = Yes>, fillcolor="#399de5"] ;
718 -> 720 ;
721 [label=<gini = 0.0<br/>samples = 18<br/>value = [18, 0]<br/>class = No>, fillcolor="#e58139"] ;
713 -> 721 ;
722 [label=<education_high.school &le; 0.5<br/>gini = 0.5<br/>samples = 2<br/>value = [1, 1]<br/>class = No>, fillcolor="#ffffff"] ;
712 -> 722 ;
723 [label=<gini = 0.0<br/>samples = 1<br/>value = [1, 0]<br/>class = No>, fillcolor="#e58139"] ;
722 -> 723 ;
724 [label=<gini = 0.0<br/>samples = 1<br/>value = [0, 1]<br/>class = Yes>, fillcolor="#399de5"] ;
722 -> 724 ;
725 [label=<gini = 0.0<br/>samples = 1<br/>value = [0, 1]<br/>class = Yes>, fillcolor="#399de5"] ;
711 -> 725 ;
726 [label=<duration &le; 176.5<br/>gini = 0.49<br/>samples = 7<br/>value = [3, 4]<br/>class = Yes>, fillcolor="#cee6f8"] ;
710 -> 726 ;
727 [label=<gini = 0.0<br/>samples = 3<br/>value = [0, 3]<br/>class = Yes>, fillcolor="#399de5"] ;
726 -> 727 ;
728 [label=<duration &le; 188.5<br/>gini = 0.375<br/>samples = 4<br/>value = [3, 1]<br/>class = No>, fillcolor="#eeab7b"] ;
726 -> 728 ;
729 [label=<gini = 0.0<br/>samples = 3<br/>value = [3, 0]<br/>class = No>, fillcolor="#e58139"] ;
728 -> 729 ;
730 [label=<gini = 0.0<br/>samples = 1<br/>value = [0, 1]<br/>class = Yes>, fillcolor="#399de5"] ;
728 -> 730 ;
731 [label=<age &le; 29.5<br/>gini = 0.499<br/>samples = 21<br/>value = [11, 10]<br/>class = No>, fillcolor="#fdf4ed"] ;
709 -> 731 ;
732 [label=<gini = 0.0<br/>samples = 3<br/>value = [0, 3]<br/>class = Yes>, fillcolor="#399de5"] ;
731 -> 732 ;
733 [label=<euribor3m &le; 0.813<br/>gini = 0.475<br/>samples = 18<br/>value = [11, 7]<br/>class = No>, fillcolor="#f6d1b7"] ;
731 -> 733 ;
734 [label=<previous &le; 0.5<br/>gini = 0.498<br/>samples = 15<br/>value = [8, 7]<br/>class = No>, fillcolor="#fcefe6"] ;
733 -> 734 ;
735 [label=<marital_married &le; 0.5<br/>gini = 0.473<br/>samples = 13<br/>value = [8, 5]<br/>class = No>, fillcolor="#f5d0b5"] ;
734 -> 735 ;
736 [label=<age &le; 32.0<br/>gini = 0.49<br/>samples = 7<br/>value = [3, 4]<br/>class = Yes>, fillcolor="#cee6f8"] ;
735 -> 736 ;
737 [label=<campaign &le; 1.5<br/>gini = 0.375<br/>samples = 4<br/>value = [3, 1]<br/>class = No>, fillcolor="#eeab7b"] ;
736 -> 737 ;
738 [label=<duration &le; 180.0<br/>gini = 0.5<br/>samples = 2<br/>value = [1, 1]<br/>class = No>, fillcolor="#ffffff"] ;
737 -> 738 ;
739 [label=<gini = 0.0<br/>samples = 1<br/>value = [0, 1]<br/>class = Yes>, fillcolor="#399de5"] ;
738 -> 739 ;
740 [label=<gini = 0.0<br/>samples = 1<br/>value = [1, 0]<br/>class = No>, fillcolor="#e58139"] ;
738 -> 740 ;
741 [label=<gini = 0.0<br/>samples = 2<br/>value = [2, 0]<br/>class = No>, fillcolor="#e58139"] ;
737 -> 741 ;
742 [label=<gini = 0.0<br/>samples = 3<br/>value = [0, 3]<br/>class = Yes>, fillcolor="#399de5"] ;
736 -> 742 ;
743 [label=<campaign &le; 1.5<br/>gini = 0.278<br/>samples = 6<br/>value = [5, 1]<br/>class = No>, fillcolor="#ea9a61"] ;
735 -> 743 ;
744 [label=<gini = 0.0<br/>samples = 5<br/>value = [5, 0]<br/>class = No>, fillcolor="#e58139"] ;
743 -> 744 ;
745 [label=<gini = 0.0<br/>samples = 1<br/>value = [0, 1]<br/>class = Yes>, fillcolor="#399de5"] ;
743 -> 745 ;
746 [label=<gini = 0.0<br/>samples = 2<br/>value = [0, 2]<br/>class = Yes>, fillcolor="#399de5"] ;
734 -> 746 ;
747 [label=<gini = 0.0<br/>samples = 3<br/>value = [3, 0]<br/>class = No>, fillcolor="#e58139"] ;
733 -> 747 ;
748 [label=<month_jul &le; 0.5<br/>gini = 0.496<br/>samples = 55<br/>value = [30.0, 25.0]<br/>class = No>, fillcolor="#fbeade"] ;
708 -> 748 ;
749 [label=<cons.price.idx &le; 93.495<br/>gini = 0.483<br/>samples = 49<br/>value = [29, 20]<br/>class = No>, fillcolor="#f7d8c2"] ;
748 -> 749 ;
750 [label=<age &le; 29.0<br/>gini = 0.5<br/>samples = 36<br/>value = [18, 18]<br/>class = No>, fillcolor="#ffffff"] ;
749 -> 750 ;
751 [label=<job_blue-collar &le; 0.5<br/>gini = 0.32<br/>samples = 10<br/>value = [8, 2]<br/>class = No>, fillcolor="#eca06a"] ;
750 -> 751 ;
752 [label=<day_of_week_tue &le; 0.5<br/>gini = 0.198<br/>samples = 9<br/>value = [8, 1]<br/>class = No>, fillcolor="#e89152"] ;
751 -> 752 ;
753 [label=<gini = 0.0<br/>samples = 8<br/>value = [8, 0]<br/>class = No>, fillcolor="#e58139"] ;
752 -> 753 ;
754 [label=<gini = 0.0<br/>samples = 1<br/>value = [0, 1]<br/>class = Yes>, fillcolor="#399de5"] ;
752 -> 754 ;
755 [label=<gini = 0.0<br/>samples = 1<br/>value = [0, 1]<br/>class = Yes>, fillcolor="#399de5"] ;
751 -> 755 ;
756 [label=<age &le; 68.5<br/>gini = 0.473<br/>samples = 26<br/>value = [10, 16]<br/>class = Yes>, fillcolor="#b5daf5"] ;
750 -> 756 ;
757 [label=<euribor3m &le; 0.877<br/>gini = 0.444<br/>samples = 24<br/>value = [8, 16]<br/>class = Yes>, fillcolor="#9ccef2"] ;
756 -> 757 ;
758 [label=<gini = 0.0<br/>samples = 4<br/>value = [0, 4]<br/>class = Yes>, fillcolor="#399de5"] ;
757 -> 758 ;
759 [label=<age &le; 47.5<br/>gini = 0.48<br/>samples = 20<br/>value = [8, 12]<br/>class = Yes>, fillcolor="#bddef6"] ;
757 -> 759 ;
760 [label=<education_professional.course &le; 0.5<br/>gini = 0.43<br/>samples = 16<br/>value = [5, 11]<br/>class = Yes>, fillcolor="#93caf1"] ;
759 -> 760 ;
761 [label=<campaign &le; 1.5<br/>gini = 0.337<br/>samples = 14<br/>value = [3, 11]<br/>class = Yes>, fillcolor="#6fb8ec"] ;
760 -> 761 ;
762 [label=<duration &le; 183.0<br/>gini = 0.469<br/>samples = 8<br/>value = [3, 5]<br/>class = Yes>, fillcolor="#b0d8f5"] ;
761 -> 762 ;
763 [label=<euribor3m &le; 1.263<br/>gini = 0.48<br/>samples = 5<br/>value = [3, 2]<br/>class = No>, fillcolor="#f6d5bd"] ;
762 -> 763 ;
764 [label=<job_entrepreneur &le; 0.5<br/>gini = 0.444<br/>samples = 3<br/>value = [1, 2]<br/>class = Yes>, fillcolor="#9ccef2"] ;
763 -> 764 ;
765 [label=<gini = 0.0<br/>samples = 2<br/>value = [0, 2]<br/>class = Yes>, fillcolor="#399de5"] ;
764 -> 765 ;
766 [label=<gini = 0.0<br/>samples = 1<br/>value = [1, 0]<br/>class = No>, fillcolor="#e58139"] ;
764 -> 766 ;
767 [label=<gini = 0.0<br/>samples = 2<br/>value = [2, 0]<br/>class = No>, fillcolor="#e58139"] ;
763 -> 767 ;
768 [label=<gini = 0.0<br/>samples = 3<br/>value = [0, 3]<br/>class = Yes>, fillcolor="#399de5"] ;
762 -> 768 ;
769 [label=<gini = 0.0<br/>samples = 6<br/>value = [0, 6]<br/>class = Yes>, fillcolor="#399de5"] ;
761 -> 769 ;
770 [label=<gini = 0.0<br/>samples = 2<br/>value = [2, 0]<br/>class = No>, fillcolor="#e58139"] ;
760 -> 770 ;
771 [label=<age &le; 56.0<br/>gini = 0.375<br/>samples = 4<br/>value = [3, 1]<br/>class = No>, fillcolor="#eeab7b"] ;
759 -> 771 ;
772 [label=<gini = 0.0<br/>samples = 3<br/>value = [3, 0]<br/>class = No>, fillcolor="#e58139"] ;
771 -> 772 ;
773 [label=<gini = 0.0<br/>samples = 1<br/>value = [0, 1]<br/>class = Yes>, fillcolor="#399de5"] ;
771 -> 773 ;
774 [label=<gini = 0.0<br/>samples = 2<br/>value = [2, 0]<br/>class = No>, fillcolor="#e58139"] ;
756 -> 774 ;
775 [label=<euribor3m &le; 0.904<br/>gini = 0.26<br/>samples = 13<br/>value = [11, 2]<br/>class = No>, fillcolor="#ea985d"] ;
749 -> 775 ;
776 [label=<job_services &le; 0.5<br/>gini = 0.153<br/>samples = 12<br/>value = [11, 1]<br/>class = No>, fillcolor="#e78c4b"] ;
775 -> 776 ;
777 [label=<gini = 0.0<br/>samples = 11<br/>value = [11, 0]<br/>class = No>, fillcolor="#e58139"] ;
776 -> 777 ;
778 [label=<gini = 0.0<br/>samples = 1<br/>value = [0, 1]<br/>class = Yes>, fillcolor="#399de5"] ;
776 -> 778 ;
779 [label=<gini = 0.0<br/>samples = 1<br/>value = [0, 1]<br/>class = Yes>, fillcolor="#399de5"] ;
775 -> 779 ;
780 [label=<job_technician &le; 0.5<br/>gini = 0.278<br/>samples = 6<br/>value = [1, 5]<br/>class = Yes>, fillcolor="#61b1ea"] ;
748 -> 780 ;
781 [label=<gini = 0.0<br/>samples = 5<br/>value = [0, 5]<br/>class = Yes>, fillcolor="#399de5"] ;
780 -> 781 ;
782 [label=<gini = 0.0<br/>samples = 1<br/>value = [1, 0]<br/>class = No>, fillcolor="#e58139"] ;
780 -> 782 ;
783 [label=<gini = 0.0<br/>samples = 11<br/>value = [11, 0]<br/>class = No>, fillcolor="#e58139"] ;
707 -> 783 ;
784 [label=<cons.conf.idx &le; -39.9<br/>gini = 0.264<br/>samples = 32<br/>value = [27, 5]<br/>class = No>, fillcolor="#ea985e"] ;
706 -> 784 ;
785 [label=<education_university.degree &le; 0.5<br/>gini = 0.473<br/>samples = 13<br/>value = [8, 5]<br/>class = No>, fillcolor="#f5d0b5"] ;
784 -> 785 ;
786 [label=<education_unknown &le; 0.5<br/>gini = 0.245<br/>samples = 7<br/>value = [6, 1]<br/>class = No>, fillcolor="#e9965a"] ;
785 -> 786 ;
787 [label=<gini = 0.0<br/>samples = 6<br/>value = [6, 0]<br/>class = No>, fillcolor="#e58139"] ;
786 -> 787 ;
788 [label=<gini = 0.0<br/>samples = 1<br/>value = [0, 1]<br/>class = Yes>, fillcolor="#399de5"] ;
786 -> 788 ;
789 [label=<campaign &le; 1.5<br/>gini = 0.444<br/>samples = 6<br/>value = [2, 4]<br/>class = Yes>, fillcolor="#9ccef2"] ;
785 -> 789 ;
790 [label=<gini = 0.0<br/>samples = 4<br/>value = [0, 4]<br/>class = Yes>, fillcolor="#399de5"] ;
789 -> 790 ;
791 [label=<gini = 0.0<br/>samples = 2<br/>value = [2, 0]<br/>class = No>, fillcolor="#e58139"] ;
789 -> 791 ;
792 [label=<gini = 0.0<br/>samples = 19<br/>value = [19, 0]<br/>class = No>, fillcolor="#e58139"] ;
784 -> 792 ;
793 [label=<euribor3m &le; 0.658<br/>gini = 0.091<br/>samples = 21<br/>value = [20, 1]<br/>class = No>, fillcolor="#e68743"] ;
705 -> 793 ;
794 [label=<gini = 0.0<br/>samples = 1<br/>value = [0, 1]<br/>class = Yes>, fillcolor="#399de5"] ;
793 -> 794 ;
